0.8053782439288968
-1.8669984415292376
-0.8856485604713291
1.2492633017575923
0.41889068804198387
0.1232216077418514
-1.059995728050477
0.7277858456873719
0.3406649889234845
-0.6314976020899921
1.8434318081389942
1.2020097914128052
-1.2764576506131131
-0.0672702549616001
-0.241504729371305
0.714672803132461
0.6626327801260758
-0.32165194499204325
-1.174585865972044
-1.3845819082517448
0.6513968677995791
0.14553272376238574
0.2685958200703423
-2.04930287978137
-0.5907170247264552
-0.707007702297983
-0.612924852241845
0.7375893360196127
0.3142774606665692
-0.32859601051523657
0.8820842843445238
-0.8104491502950637
-3.1448615811986986
-1.7707884088361092
-0.6813397422488242
-0.9024709064962925
1.6102003474032385
-1.2637066991267323
-0.69401950402203
0.11014125886000646
0.8717797299505694
-0.2628762096236473
-0.6895486540155349
-0.8383463359531562
0.541446971734878
-1.68222095331801
-0.05496490064157524
-0.5602016487005329
-0.45618794945376795
-0.21484680147235255
-1.215136711162404
1.8195405780020593
0.23813431772687713
-0.9640346070751296
-0.6664688417730619
0.8013141974411953
-2.0314337298256384
-1.5109448657355047
0.8664656492037754
1.296260337418576
0.7872350309291335
0.8877537567504938
0.6120248157805245
0.30184731436662804
0.3694515236572985
0.35370248667165677
-0.06591043686422769
-1.636647024780278
0.15803232536920106
-2.105017425243682
-0.20079594821153374
-0.043569048944999474
0.6985264790850303
0.42638338020771044
-0.7306749594784088
-0.4515008243548409
-1.1774277755726146
0.22331671548616627
-2.0901291496038934
0.10838723099748394
0.11367456317667464
-0.254411634074425
-0.16299956794639034
-0.8768310254394198
1.273891762125843
-0.37570107484610393
-0.7053083222398778
0.1897900511101357
-0.2668481373940226
0.2814968522980888
-0.48227002594526414
-1.1589612275485268
-1.7658267116457496
1.0043414747137311
0.5171942374593272
-0.31947416839987947
-0.9334212007790321
-1.3477948155937682
-1.3149004815416043
-1.79485305042169
-1.4836153193334518
-1.5160493319075627
-0.9208859373599535
0.15564604077932356
-1.1515967216889047
-0.7684051426173166
