-1.4732836428987142
-1.0336109426321471
-0.4781536349886061
0.11246557138245457
-1.9740241810200605
-1.6754519398024028
0.3336500812895692
0.5562648934278429
-0.48755571806126946
0.09256256255887994
-2.0396315661434237
-0.2646758622824076
-0.7161333754526064
-0.3077966098300589
-1.0384025522611742
-0.208664600496155
0.4624689388076183
0.5404526911554778
1.0949828168965998
-0.04934492026977335
-1.2293027894711315
1.3105387196881417
-0.17202959582891758
0.5896743664353609
-0.04403335822513052
0.02294986983407614
-0.3576615049046926
-0.8838297727193507
0.02977069608104776
0.9489608216693352
-0.8750611917170213
-2.2344436710105633
0.7147855590075328
-0.15515731752660103
-0.1731570741891032
0.7846606782563902
0.05879173054856356
1.6570499965971888
-0.604534061518314
-0.3629362460522191
0.961140816934806
1.54571644664201
0.060667172461594206
-0.4825979672136945
-0.06467282160851166
-0.13637229407512388
0.4280689889338945
-0.4751621476092029
0.05052892760455356
-1.931197210636378
0.3040286582692505
-1.3280972140661453
1.381421202376256
-0.05567252304236273
0.33594445129999667
0.7721369813622206
-0.9724065056856155
-0.5332946696793293
0.12812147118539913
0.6111353678515598
0.07603591537502116
-1.175944395448737
-9.605607474177617E-4
-0.6887559379294153
0.9141186954467937
-0.19916892148710813
-0.949944819907786
0.8012777988344403
-1.058735939864578
1.2550814519867257
-0.7071998816876196
-1.2218325455421668
0.8004399166477917
1.9036871435429872
1.6195235882101837
1.267636702620004
0.12867519772042457
-1.1237725767487805
0.6381260323322796
-1.2790940386273857
1.359848350000204
1.0077478973613703
-1.2433641388757029
0.22527390637307726
-1.8179321372396176
0.9868824529293223
-0.5633945264204823
0.5501432149481675
1.0935005266651148
0.2003216033851075
-0.8020517016831
0.8161090985028433
1.1421134969097206
0.0772632154957022
-0.3847929521688781
-0.1304343439947681
1.3538915011894772
1.3325876621898538
0.8544758891911579
1.1467880195064477
1.3155122525732053
-0.7179275976446133
0.9659270204096732
-0.33063439595475974
1.28311222557517
-0.6221979738305488
0.43919375456568244
-0.40286776863314006
0.24512558249012983
-1.618190830433
1.5421759730598226
-1.789573383309558
-1.7391791914591166
-0.8124826209943715
0.86983066935035
-0.3769222527816832
0.6597117073436026
0.419448443979875
-0.02114531840829036
-0.3261971151760631
-0.2325390464227714
0.3301385539880309
1.0012315629785506
0.5083333331042879
0.05209375489330056
-0.3192253038338129
0.7927368528029689
0.4707592170344571
0.2792411442996842
-1.2822722926920405
0.12318624081376107
0.0023648894034621064
-0.5839316419427248
-1.1025457441483741
0.3514242264119727
0.14311055911817902
1.1130779795512347
-0.11181437877496159
0.18920038884091042
0.28602496203146893
0.3323635600367095
0.1964427193089977
0.7843708899767554
-1.4253493898606422
0.8000693407524234
-0.5698144892902265
0.3521600312444113
1.9357771293345147
0.7277221513542044
-2.025828951315078
0.7224088454759867
1.138395516072813
0.25788753181613056
-0.3815324513249768
2.2730824071487534
1.2052057063539101
0.45192951846131013
-0.13585929862185844
0.46010318218538965
-0.958849061439314
-1.8343964067227914
0.1387108439099566
-1.0557279357313438
0.30863185876346444
-0.08184923271743491
-0.22388829806272398
-2.331161284124534
0.7695398414672237
-0.6419029476277671
-0.5851511715759875
3.085179591265845
-0.08635678121487872
-1.2186648074851498
1.185423065362021
2.221313397043896
0.6894906420573661
-0.7358746386365974
1.2479168191896264
-0.7335610192133513
0.46379181895709803
-0.22813591487719576
0.9009617520678027
1.0405850917565753
-0.3251624926431165
0.6971395125670108
-1.3015453687238367
-0.46371734275328974
1.1213934216227974
-0.09081534579007258
0.496852447823323
0.09312316879098757
-0.06340014813323169
0.14143502905264144
-0.893562858133609
-1.675522841850308
0.5737313354241937
1.231103009264557
0.14637121448460638
0.47520185851511165
-0.2114762581233207
0.8782778371123567
0.13232896123645296
1.4467857349912687
0.1703920163242455
0.7243146079005618
0.795724498113366
0.6965136993246963
-0.4664241734511236
-1.6636508921548805
-1.752861132721106
0.6344421146669313
0.6093261514674728
1.073393641558331
0.14458453979326602
-0.936673423522288
1.034828549971786
-0.11784060376997679
-0.20269485934572767
-0.8849520368959106
-0.7760001876214123
-0.29101578199582484
0.4600871860862776
-0.13137465224323533
-1.899691470295335
0.06096077631750454
-2.1710486613670015
1.0722426410841877
0.061399784371092336
0.3160646461814821
1.127360154084368
1.1240453012729268
1.8984458105826052
0.40826943454291603
-0.6935968023178396
-1.1139183528956016
1.5784877152695587
0.6459548611538964
0.18345335441521074
-1.801051782704739
1.5933074746509008
0.5168323474351165
0.94309339214694
0.03444284825515483
-0.6050686914723237
0.10420650478203242
-0.7815415427755978
0.12488768864374944
-1.573160712637414
-2.0497811060944704
0.5944002648253307
1.5156848446718454
-0.8497754222339925
1.2479753936290374
-1.3390058248993595
-0.5366850760652344
-0.4503558389976094
-1.4330933403361261
-0.3597238609377123
-0.1058482018375566
-0.002381406760318632
0.20539849275531452
-0.4070501445639522
-1.2103278046102532
0.8040869041805377
0.2596934063129935
-0.5318770981657879
-0.2746672285868782
-0.500727309715088
0.2618578321906587
0.5710218346513531
0.15090377124723936
-1.68659007458027
-0.9103789298087372
0.3987839201210908
1.0303577071738372
0.5973781858958626
0.6066664058245129
-0.5558295704598449
-0.017543322877877823
-0.4493978553987718
0.36229046008990445
-0.23287718823201514
0.34239153616739476
-0.13693428065617302
-1.0961130930199603
0.5402211382420492
0.28427152802664696
0.0763019189214443
-0.7433391375835045
0.1427066425547264
-0.46207108028943483
0.07766705444639455
0.11081990365833629
0.3877503032156277
0.9051368333843568
-0.1856865683665012
1.545134557364045
0.20036690188784137
0.7318840207791224
2.5247563697108424
1.3766771023332678
-0.24892999518405362
1.5177749518071733
-0.7275458234676179
1.727903254194965
1.0974861769808402
0.3486081910934155
-0.4438558237648857
1.7176161257133484
0.07247049990581048
-0.6525953040311163
-1.6576214875997042
0.25327099654796814
1.405455434605814
-1.5356060459165615
0.8561194830140906
-0.15392152398223816
-0.08215942064662975
-1.5015314929659394
0.4048182233897102
-0.5941739302794309
-1.6637903884442566
0.28948127021148284
0.6513805399906334
-0.5477932539494087
0.5523506247180964
0.4708069710050549
1.5190435736432062
0.46029208679908257
0.7003521835557095
0.9825263565135672
-0.42213241733951656
0.1476038590951417
1.0933954643438004
-1.155048276898294
0.9463727462030841
0.9372939273662731
-0.13215203948175733
-1.2989807205851664
0.6039290593269289
-1.119905942076889
-0.046380203983058664
0.03637720568685923
-0.8405657966580652
0.6664573832801614
0.11470298328766347
1.18881777216885
-0.0384744266822238
0.8251719038494878
-2.0443131512164223
-1.6522433508915824
-0.4893825599645563
0.2262704018049947
-0.5535139023868787
1.328692727334861
-0.3510922629826309
-0.7278300902825159
-0.8438527199665863
-0.20588150260844973
-0.7276078685774425
-1.2241145607479478
0.9711168533586559
1.5628489561464214
1.854891590319856
0.8960288830390811
-0.35856144089816144
-0.6835023210531201
2.0184991957550618
-0.7310910211244023
-0.6055812151689132
-0.5458867908801258
-0.4479395794184724
0.10981382442743248
-0.2852879827923278
0.18547151982731225
-0.39034557852173757
-1.5934892053449965
-2.0068620652041544
-0.8634951412706586
-0.3571037915867269
-2.5009128780241614
-0.9643756912446001
-0.41299385360135515
-0.5802442108619916
0.2686956820500828
-0.13304919214247007
0.12768826814054612
2.006292951206976
0.6321227290502184
0.741227910862606
1.6678126445501116
-3.021537966705372
0.39139868403542105
-0.03388348527253568
0.1625510083090684
0.6617783213284354
0.31000808531866036
0.5865828294673437
-1.1884147739130508
0.6182458119129858
-0.4785099625443991
-0.4131254246138146
-2.605472289009641
-0.13999336675434162
1.4125661428230731
-1.321491384082944
-1.429510205553394
-1.0161459462967621
-0.9132869688306301
-1.042873764553838
-0.4553372883608628
0.03645565389214016
-0.3050713287728309
1.467100857961128
-1.719790009223287
0.7972272646158989
-0.8965427051158711
0.3331352539734245
0.9639481526346397
-3.1624362756515354
0.001161815290122159
0.5277306190604465
0.09110000495838452
0.7042171472191507
-0.9862016611299157
1.5740999260522848
-0.9628408647917297
1.5686527737929323
1.355430025610078
-0.48050894962049123
-1.0579944699303099
-1.2036921761817565
-1.994543001838888
-0.3009627521445976
-2.5282990031748582
-0.03909350358512027
-0.6091033586869801
-0.6199852519759681
-0.5677088289431055
0.33394724139158083
-0.8455000919598397
0.005373394357013126
-1.3368586707864862
0.9949365786071739
-0.9141704888265354
0.4727112223422355
1.3050331865211828
-0.6742595286014068
-0.36498043053734325
-0.27687110059801145
0.013625756537625704
2.010131696019223
0.9761602909862601
0.11265535543413409
0.27120466888087025
-0.8575056713741981
0.4373225468808375
-0.7965779770508201
-1.1732439983191651
-2.213821767261047
-0.4583802186569917
-0.5435765398425334
0.34554224002407563
-0.9972824110576414
-1.197168062347049
-0.20309325822058066
-0.36834878526986986
0.0923596278321134
0.4069096967901799
1.643199358708844
1.046449513986748
-1.2114897269259102
-1.3853004272299094
0.5566646131603052
-0.24704628753057717
2.4069902426066587
-0.18033001630950207
-0.02931048289402388
-0.3056955059175055
0.09262861315798832
0.6165874825034808
0.8070374111921822
0.2773064917715476
1.0346650160330828
-0.4850001787325671
-3.0040753770347632
0.9356854668864881
-1.521809756769948
-1.3681859487961117
-0.9345503516953207
-1.2636550353170612
-1.8753854907313294
-1.0225021040508813
0.5226321090866123
0.12423542276083024
-0.15497206315959908
-0.8406932218710428
0.574005163672926
0.7245504267618317
1.1831183439985833
0.6236222918926956
-0.13510487048133854
0.029154297780293287
-0.9302545046776476
-0.6296254535479399
-0.8640386258868297
1.1634469510568968
-0.4612824852812918
-1.4574631962740687
0.0577042365760313
1.3254306430232443
-0.1239274810701641
0.32330553234069664
0.3948969495875398
0.4108486758948445
0.5774202518644795
1.7874778560446907
0.5290474645388792
0.3627273432210608
-0.19042231644691165
0.5875325771778607
0.8063022453693389
-1.5897965783653605
-0.34046347744646055
0.5405837270831914
-1.8441112979870156
-0.7376720048718511
0.4816756117037513
0.07236237547478334
-1.181648535909682
0.6542206595875988
0.696953568525271
0.9315059986303457
0.8823761043353178
-1.377934574542773
2.1279600522540125
-1.0105784995842568
1.9149787852335585
0.32233337998078737
1.3943847778545535
9.506640170838106E-5
1.544314559031656
1.7995428459508334
-1.9551250563999307
1.066078083896318
1.0852992010668532
1.3030281271300765
0.8921641586109619
1.1660087890083555
-0.31199906246914966
1.9728462917079377
-0.20746275536955971
-0.8605359710244411
-0.10340330728394719
0.2872912854202359
-0.9224946557154057
-1.217055395872593
-3.0917807372457418
0.038720644353334936
0.3495811642891412
-0.40958689335140636
-0.9337875719403896
-0.4263504689312749
0.307665062025452
0.06890473412700727
1.0631258926295661
-1.258023587463722
0.4523450182159586
1.1524203624997684
0.46521364338413396
1.3968079492926084
0.4407134415995431
0.059626550129562736
0.32340477948042035
-1.138329877196875
1.5843866148248902
0.8025693090093949
0.04080438719676767
0.5908086953934046
1.676640524387498
0.17196726359063125
-0.6586186437667518
0.8420923709626276
0.6139390811909394
-1.0312715125911518
-0.3051515596171829
0.6622283837403244
0.7751616389058409
0.2936639804099425
-0.2295514136374553
2.166219858824205
-1.122117793980489
-0.4731909165340992
0.6737020545268878
1.6248149733998392
-0.27430117208352134
-0.5354754256920907
0.6459685606105262
1.394201541473731
0.07806400914286578
1.2077474418554806
0.009689576840424548
-0.5619285376923882
0.536486378882038
-0.6974523785426832
1.4072503429166838
0.10275305826674752
0.6424923743224964
-0.024261246341088
0.6967060965063907
0.364334361035871
0.3319819326256003
0.8887017369649454
-1.9343937688358182
0.07210952889859341
-0.06477892441972767
-2.0282101206231453
-0.2519558184553536
-1.650533479262091
1.7204494343632908
1.87590946142189
-0.7818054352715329
0.07101329028728873
0.3178333646809715
0.5498906295442221
1.7262734348990187
0.48433504553496654
-0.5096058186022949
0.5385828401189421
-0.2166848811164978
-0.35644097563413785
0.7014497780266952
-0.33013001181435775
0.15960954088040522
1.1849726456957925
1.1065086834274458
-0.6384194768545708
-0.5648176774665389
-0.1080285320148914
0.12720081450910017
-1.7771673199070495
0.8812750948065627
-1.2069667105837953
0.32313009260338776
0.28119938258616184
0.17514092526332345
-0.5326813934194645
-1.0501655377978716
0.2686800860358124
-0.1433421403100036
0.8706102300304608
0.885710983866181
0.8158147150687011
-1.693835190209164
0.6970234743308953
1.4099815557577389
-0.8439486827866842
-1.2029493452057582
-0.4813976029272641
0.9010657712605395
-0.6940110310492795
-1.4668240036499212
-0.22329367666198835
-0.05075506804785457
1.0548794531503098
0.38143084567605856
-1.2451130252405018
1.4952457171486881
-2.1215981282168404
1.8580422431391297
0.13977016859658598
0.1501391377627722
0.3731488508040361
-1.4466221331861093
0.7789429135342366
0.3284192417821228
1.1214810638214394
1.4641834104471687
-0.14645856188603817
1.247677797424462
-0.7869964833293503
-0.9114252928758633
0.716088535447228
-0.5588797178227081
-0.8213336272139877
-0.3715178939330402
-0.8320011997811332
0.1412386780487485
-0.6670656003050093
0.08342055494642056
0.4960420081473241
-0.8357893025238228
-1.7970004692391899
1.294213730847773
-1.3496237764170376
0.16311696502892992
-1.0443576562616355
-0.5559045643394366
-1.6909238568930542
-0.4158902387371349
0.24227983013373175
0.5634771425726293
1.6713675645406294
0.9450018637918858
0.03198281887763849
0.8644448705397892
-1.181394638186159
0.3195500035847425
0.6727141793046085
1.3736830324674698
0.2739752945850568
-0.6123303720559247
-2.042071802473418
1.1993343104563192
-0.051382738205401006
-1.1354765373913533
-0.5757546588356875
0.30599428906416426
-3.118808837916794
0.07838157729367239
-1.023238317300691
-1.9285022909888754
0.5045277657836577
0.19973474656219828
0.39623765890349494
-1.1579428467721162
-0.26038055409091043
-0.5285633480849979
-0.7848294151547133
-0.27271583642357816
0.6729433733653156
0.4015153040975375
0.3514465290825428
0.36794185967824805
0.8583159548346675
-0.016517035616353048
0.5225965356610991
-1.7518674612452108
0.5288358757539483
-1.7246328768655173
-0.7673281833895845
0.2716644151921339
-1.9661943650728413
0.7632171076146758
2.099551236812617
0.9524688333825264
1.2027437794185487
2.4922364436775983
-0.873768616209404
-0.9649473027481209
0.47892567876834247
0.7371026398923762
-1.2588794718210568
-1.672692739865255
2.150379280793482
0.9777979441330327
1.2189857890391478
-0.7932330638544859
1.4427552400938717
-0.8558731532377823
1.080138813810281
-1.68697665586332
0.16984889736598513
-0.1825238018442757
-0.770089482430923
1.1345607389006582
-0.5588590541638868
-0.45938364073565413
0.46841979793287064
-0.4429827106208245
0.3496732932079677
-1.5694961385346622
-0.2989690843037996
0.25635277780227034
-0.983189745285789
0.8936403062208803
-0.16905299768093354
-1.2353407326058483
-1.343298534454283
1.7383666750195106
0.784840003000064
1.0972943708314087
0.30439190119895676
-0.08252417073534023
0.410210903486238
-0.5454180591866398
-0.0691789494793063
-0.9911928365835253
0.2521215367375799
0.10424630806535602
-0.5092582395936995
0.9933536873222215
0.5514037343903464
-0.2041880450250403
0.450900451350647
2.020623259141656
1.6318058404020364
-1.872248809930365
0.2676159770070564
0.23094274178911986
-0.526758258375381
2.3301765063022977
2.0993276274633614
-3.07471131156197
1.5320689800183025
-0.2470372372818226
-0.36642007098856444
0.9002304651449579
0.24674132111191496
-0.2104739836764266
0.16430648993118746
-0.6427139943885056
-1.1355673456446576
0.5234488759855919
0.9726098163671935
0.9530899364525688
-0.14503014120465266
1.7336254813821663
1.1486798689608417
0.005726792377784451
-0.7589393704436745
0.19900267414368053
-0.45597399270289585
0.6470258311172291
-1.95172747185105
-1.006952886876079
-0.33618986310083526
1.5491245032031733
-1.0686987901085196
0.6721667501645983
0.09083910629420217
0.2873875153863297
-0.3757872265675673
0.25606877850580656
-0.17290481782171963
2.5646582392298334
1.1404595205234584
1.0894669581501173
1.7886099220032865
-0.062159572433945195
-0.1394026185527456
-0.2096008779675344
0.03738258082484932
-0.4343467881614455
1.0678516200194876
1.2782778608140366
-1.1410778351838853
0.9252490055394402
0.4393386020814493
0.24167566967696497
-0.8756776904940926
-0.26013593528333495
-1.6518061968685613
-0.029057364904219146
0.7357346906215397
0.0026567241131602547
-0.7191180454547611
-0.0656236714137901
0.26321626706580054
0.28690976464252316
-0.4697274283849058
-1.448220479394248
0.2494747677716457
0.3485355138931341
-0.17550964089937215
-1.3446217752028267
-0.10369911093146664
0.5139829077240552
-0.5259288778826827
0.10610846861097636
-0.28247826860474656
-0.8135085919849536
0.7497101617854899
-1.0647887283177928
0.2192261270262312
-0.49810922850365547
0.057513158300848494
-0.2998308854515407
-1.0557315730665389
-0.43833783453205066
1.3509614637997913
1.891201713648083
0.1367179968259996
1.0101679805115749
0.740862664005816
0.7880406665239155
-0.588077125046843
-0.3325939777295714
0.5962335114758028
-2.278645989480831
1.141646536133358
-0.6512796366214132
-0.47636655293814695
0.5257862503727547
-0.3876077058230689
0.8148386723870717
1.222564710402569
2.416253479318702
-0.13995822047576623
0.1614701187931156
0.6828930922514543
1.0624091039933379
-1.819812551582477
0.41796956092320964
-1.0562317220203914
0.3533472380201188
0.9912471714414978
0.0972087626836251
0.6552447391188293
1.1256837379173825
0.12011868123251496
0.7195819949814121
-0.40482948163314414
0.8325848917104608
0.8133920189611
0.9081730177071407
-1.169719412443726
-0.9424924603616285
-1.080763580051266
-2.1100137138156776
-1.6561195657902121
0.6964375943837957
0.7023072146672484
0.009602192219178674
-0.5557576443201011
-1.209295990258607
-0.16962667287208755
1.331458256758304
1.0789207719566571
1.5468276678453858
1.6903597650548812
-0.5676542676221175
-0.31391204915074833
-0.4302264824135244
2.2678852127454427
0.39502417328235884
0.12007395153552794
1.1044559426716989
0.053445928711326966
0.46368966478355234
0.29062104114141996
1.3982672950294357
0.9691826487721713
-0.4461671322228442
-1.1137491497168552
-0.030957406285705015
0.9496087251771552
0.3155598006413208
-1.3154885745613012
0.7710172739038905
0.01024658314817198
0.02123565071528494
0.6144385322542533
-1.1936613910617473
1.1548810614581912
-0.2041436611321902
-0.23836275782420346
0.8511462702247086
-0.6392471407023654
-0.2599292567553129
-0.9425300821950959
-1.0985055201744969
0.885187922460574
-0.030658519871294046
0.28741892744162545
0.726766244137006
1.9673611745410235
1.1983156456049913
0.8580439374259896
0.9406746035960735
0.9865754503183299
0.6647199203578589
-0.3342177455301505
0.2311627138044498
-0.49275000325459384
1.0347330572685711
-0.48912906095746544
1.230271519529177
1.0685361291447952
0.7265422161022472
1.760358071343699
-0.6794061062055626
-1.1079263329330926
1.0159010699498017
0.3581562385334332
-0.49585284703270677
-0.09787556069523899
0.9192519026836082
0.11904244399232576
-0.7942262193665698
0.22145756106856854
0.9520936388026502
-0.017200452656126772
0.10452415378094936
0.8804928066758902
0.5153171793974173
0.14616487768138808
-0.08700570048615477
0.36545904102636867
1.8154108010343313
-0.8426921109228187
0.36716058353327014
0.1483054915819754
-1.833040588187109
-0.3122469972384479
-1.0199314896143077
-0.40836173367505585
-0.4001164337780383
1.0862447848608825
0.20440115399265568
0.8637562009556156
-1.125428798491031
-0.26603039309496923
0.181558547496475
0.29837155896993184
-0.15038459834094323
0.14915453724499644
0.5189734869931585
-0.31217760148113133
0.47775200413079777
0.9460435528176605
-0.938514102055811
0.4283830113975788
-0.22321777463680648
-0.3078781943320928
0.13553071880779377
-2.30648585742843
0.35141621667647255
0.5122738677093143
-0.33355191939146256
0.4056417908075357
-0.0913830540397113
-0.3122582491497761
1.3357739741141383
-1.2421874535036053
0.21138322858497863
0.849165673288909
-0.12925996260168438
-0.2665686159394423
-3.0102627935918016
-0.07080364543646565
-0.23901771442869718
0.16242240820825826
0.6827196823901643
-0.3035697417985572
0.30062159753516393
-2.115688738520585
1.0928364233987395
-0.17593926582948122
1.2843754563582588
0.21316692767177767
-0.15322731170785878
-0.4851753177227912
-1.488487810800755
-1.642648000965336
1.456077211962668
-1.595151797720623
1.4681108230795092
-0.23956064415349684
-0.16640558961210128
0.30758264757398573
0.24825122293083643
-1.3521647437486841
0.13523771378733768
-0.2888673747410852
-1.386057694487892
1.00096330723828
0.4565130438540005
0.5383624502242433
-1.4783636368545199
-0.7816075085906786
-1.016665345951137
-0.37857521555694906
0.9293300103510936
-0.19785671035220476
1.0384214601219492
0.9213642645413901
-1.0273307685688624
-1.6630694790356226
-0.9241147212231309
-0.4041663543328768
-0.3566000374336228
-1.2519198664197164
-0.08285160052996203
-0.11674477645930002
-0.2616268762453207
0.05372687649799632
1.8967079508454083
-0.8406147963782439
0.5425718648094948
0.389931209101492
-0.6435593343144252
0.8914552333534739
-0.22004950504183596
1.1794699811077676
1.748603539540943
1.270792042251804
0.20654242989091573
-1.5792471860181672
-0.14834324387154973
-1.7248174867312718
-0.9886899789111345
0.7987218276745749
0.6324093854571247
-0.3840636049592103
0.38125754681427565
-0.936210631304507
-0.8578894306064437
-1.0845085139460628
0.1981160450291424
-0.9512022472904655
1.8381745039669606
-0.12059409525752411
-2.08021565604236
0.6207723963641971
-0.8339414996895137
-0.8434234559143174
-0.11116100352582597
0.9830725353804745
1.2557110470988972
-0.1518121031840533
-1.8851697413841302
-2.104662616626022
0.2900933199895805
-0.332759130444384
0.9020469797398295
-0.4471156249588805
-1.4973746834674435
-0.5953710887555522
-0.7576895996264739
-0.7417230789188584
-0.0819037032355132
-0.7932233931273298
0.3071479887390859
1.0662350969418826
1.456400710096757
0.6032460184134941
-1.2248607219388912
0.3881572503828704
0.6416560255655006
-0.638542833597648
-1.3876820971613448
0.2907958902994343
0.14230589128561358
0.10066049836251073
1.558822507762453
0.5005452383377661
-0.149720330426917
0.16952049674087488
-0.29792439955282085
-0.2428243354548867
-0.21671203397083638
-0.8458241137701844
1.10174074533252
0.4144522732193631
-0.07702080021926666
-0.16263717687445417
-1.7151267656095521
-1.9853234214492959
0.6056366947220372
-1.2091817754824925
-0.24081525402639958
1.2753024223447207
1.6036119020814736
-2.160482775374825
0.11662833090411943
1.2244189218350203
0.49394918407500765
-0.7622043361216692
1.7119779693095565
1.2542659252759931
-0.1336189314521001
0.12725813955116155
-1.1240779283007976
-0.337215746324758
-1.373059925175068
-0.1766518818424455
-0.7745350970935394
-0.9178865799280386
0.854651483356454
0.08906318299488483
-0.11684935985783475
-0.5047311606599302
-0.5601426896771774
0.4080838750837555
-0.6074142369434884
1.7143245296444836
0.34248957297291893
0.2651453846262459
-1.0090016064329297
0.39720975044651147
2.3973380373961075
0.992003270586802
-0.43746517049187095
0.449938959215584
1.5740063258135484
0.6289490823328606
-0.17812844282621304
0.6049596390729274
0.306526940764013
-1.3108550627685451
1.1782391085387187
0.600739292585483
0.12151866581507609
-1.6032378395183393
0.5211588514443182
-0.6706905871785431
0.5527212246538676
0.3668226155289962
-0.2548771781279098
2.104499780859949
2.1485771473873
-1.1687166788306054
-1.2102185529764873
-1.1672052864300133
-0.7770375452342647
0.010744719546001105
0.4158420635878986
0.807345857872074
0.9423258646270269
-0.9609982135918375
0.17367229848673563
-1.7159879129408082
-0.7585087431824487
-0.49714933212616824
-0.018272344119780175
-0.7551722543163043
-0.6773469032432695
0.37157376274925064
-0.986863061626115
-1.2227582355847348
0.11668808692731628
-0.619913323932315
-0.5762528959120823
0.40193609609498443
-0.21149780303525384
1.4855338681511148
-1.3212263961412942
-0.12738341054104818
-0.8524259801283984
0.6765302499830288
-0.18806920307180028
1.1517844486049835
0.8837545802572503
1.516457406735178
-0.8936853170728252
1.4305213306310234
1.0761395672993719
-0.09564149820102705
1.2493787617357845
0.49568724981935774
0.8463771343442447
0.4866480936667276
0.38715685612809647
0.8091777014182068
-0.9773198740415583
-0.7523709461050325
-0.08128909249864895
0.7040921765625852
-1.4299202366290271
-1.1184686057621192
1.3251389549625818
-1.2422194942035958
-0.45848458965210215
1.0264070555673572
0.916986725487955
0.02957052567312599
0.2984276123793553
-1.6124927424912134
-0.40999195757416995
-0.36358394458481363
0.7536371529747135
1.6023683227702412
-0.4133454802442491
1.665044336725098
-0.4545464379592768
0.6383964930318707
0.08763094298480678
0.30724342494855383
0.1442153728446707
1.1899433383408151
0.09263931507616616
0.746508451704088
1.0940222187788786
-0.6108865246514998
-0.5367967434245342
0.39718280763778074
0.1416349573949871
1.7277633325641522
0.09499529187269345
-1.1586145721343857
0.3932205432093554
1.1423659192944997
-1.51304243641121
-1.2315418644683551
-0.11514527146666181
1.9596197900380237
0.42540860638209754
0.8428976320110546
-1.0677919117106696
-0.27953145497113535
0.18789708848592254
-1.062712748605399
0.764145416812721
-1.1690004405476504
-0.670217737750493
-1.0554956920905556
-0.8970038752767666
3.6662234314535103
0.0325787838923695
1.064538909172802
0.04583996887171417
-0.1607411592570332
-1.3754882750295572
-0.5713992058933015
0.3498588102319529
-2.2761823979938773
0.3800649215603327
-0.8808194437889596
-1.8082932498849944
1.2950311337384073
0.020086079477317262
0.6111405615100955
-0.5736032693615699
0.05999764532328531
0.26385570011811704
0.20094943177699653
0.5766765356431838
0.6978940234032284
0.32810022036512065
-1.8459474825170146
0.9149725785117143
-1.2652391107325334
1.1164172034749702
0.35752679488250483
0.9157316911146761
0.23283715781972908
-1.552993340138013
0.01426630600102163
-1.4196311410634375
-0.6642785220258263
0.3722833925267621
0.3943675145535331
-0.03906423805533769
-0.9971110943806802
0.6768105403338522
0.23121880532632408
1.0031480724248567
-0.44611452964717513
1.6154025946841188
0.9475149184427768
-0.05917007668657257
-1.1827681563051569
-0.22477317604064803
0.7337398100500301
-0.9471597047277717
-0.32386486057641317
-1.2027791257363294
1.6434590876138147
-0.20630740853137902
-0.7521916428171546
0.4429822408208013
-0.47312679897421034
-0.3080643625951791
0.09047495330335406
0.8340923947398339
0.5372279248597199
0.11219105703006545
-0.9991902221859784
0.38824324838366514
-0.2568279525114603
0.35039750946828446
0.03951480491454015
0.7927399786951012
-1.6368574170445487
1.9782267450312256
0.01671313369162511
0.25582450572115867
-0.40427957351633387
-0.03454033749700671
0.9716137436197574
0.38419880915712307
1.4488899788696037
0.7505786840724153
0.05110938191973717
-0.08723782995992625
0.7478912288670109
0.7150668589521854
-0.4745142664882546
0.2849376291727029
1.931081710278548
0.938104903177201
-0.6901223068159212
0.2847358004980724
-0.3974024847316349
1.118970192338813
-0.5541050208631095
-1.2706391259836725
-1.4019385954618597
1.7198608778641016
0.4314532708751461
0.4014023358105081
-0.41038171807243634
-0.30309068842217607
1.4228615322880065
0.8674223804406108
1.439575859615785
-1.3361478824574842
-1.1959021571736521
1.3563847992634772
-1.2333931821779656
2.056355156256673
0.1691451850187346
-0.4740574560851911
-0.5344598865692455
-0.1772345116336647
1.5586612246769334
-1.0857403602419569
0.18070579440878487
-0.6068224964580555
0.10826988708767664
-1.372642529480352
1.2613995772125286
-0.09528003942011724
0.9922700796176608
-0.7360411801354341
-0.7122038898501935
1.130769367074962
-0.8349214534466154
1.1249866559968058
0.02162524490386762
1.1282566105229774
0.22745672958464153
1.1166214039597229
-1.4467330152396285
0.33958482646549737
0.528412266809452
1.1313971898663613
1.6404131697487958
-1.0348275594854666
1.7326827995397585
-1.1436693919391676
0.8257125572931988
0.22646112301507854
1.5045401679828416
-1.2581454103741048
0.9596423532693925
0.2176899205129033
0.3415427587536031
0.14421129550524017
-0.7982849605463327
-0.4253203835297315
-0.7892580997826987
-0.2179166498803445
0.11467869599303192
2.082089020353888
-0.49524007232755995
0.9416714003925587
1.4572352374718067
-0.5518271000298094
1.6689768552998034
-0.22037751746713635
1.3961555175006095
1.3619560478685129
-0.3699289324074412
-1.7579374985571827
-0.3204943267935834
0.1693954952665954
-0.26851328756195464
-0.02336501953514702
-0.8586327164863078
-1.5778977122199493
0.15458802209507336
0.32609797924333794
-1.1027367000443284
0.38098299813093084
-2.340900297705368
0.1402004124050597
-0.3714956913703017
-0.858372422707627
1.5033316204311367
0.990132723185757
-0.385351927623107
0.951924936197096
-0.5040863635138634
-1.070552714211717
0.6738159800775796
-0.14400057381429776
-0.4842477901196103
0.6086331067279686
1.0753812251767922
-0.5821301033088274
1.901421258414771
0.9889583206062456
0.41057177009095247
-0.005099541374284857
0.1444797632537284
0.026440723830588382
-0.1806693444933815
-0.26496173103858073
0.03328173812405508
0.15909251837665042
-0.9928683929391225
-0.5335764125959124
-0.7013108426856929
0.8116942330017815
-0.22374771463627183
0.05485282761658352
0.2742803333583039
3.3051025422116425
0.9728518000498099
-1.5819647577800633
-0.30266431961723156
-0.3104726986847906
1.9624328713453079
0.7643462103937916
-0.026072273866832193
0.8967983552005413
-1.1081532656634931
-0.41313950723226983
0.14514183474347367
1.969678941116879
-0.3919520144151669
0.050789582859540855
0.7195745365368181
-1.9076745198322056
1.7998178293688056
-0.5133417015596738
-2.9809425464289925
2.512054664091519
-0.5265444302517227
1.058917840070857
-0.25930966341671796
-2.3108341607412703
-1.1152971368384277
1.413041022323499
0.06567285947219788
-1.5819958263455138
-0.11285647556571653
-2.5273472167008855
1.174342671110567
0.2242725633378329
-0.030519783801510086
0.590250857521806
-0.31417442014478614
-0.308646645871893
-1.9452598234705967
1.6665586300990387
0.3966552758168112
0.7809814097767332
0.8081879745507258
-1.5883586372420524
0.1226072162514997
-1.4163454306642629
0.3505224405121809
1.5399344519925333
-1.1784111193653637
-0.20565658287421026
0.652293806693003
-0.36056304172211034
0.3531642524490182
0.7322459951374591
0.3675829334676869
-1.5903726735019144
0.5089761326099294
-1.0580268362045815
-0.005308419394225497
0.5402550329100502
1.5709467122929024
0.12027083466257035
-0.2695146230293345
-1.080222843760146
-0.7072087151795425
-3.382518806986598
-0.009640848640196747
-0.7633072943290483
0.0617199479627816
-0.6221460795462912
-0.28883232344722215
0.9458586168311657
-1.1231861968156582
-0.15741418532968723
-0.08530372444275942
0.392881713445739
0.10683933045333371
0.4969203209558344
-1.5713116048375608
2.5478643276211006
-1.6522489698006186
0.08479450251059134
0.2759507267126609
-0.14737951114126657
1.4948638025200762
-0.47411239433980096
0.05140426756215144
-1.2025308645320443
-1.3593273574608495
-0.8936642893652994
0.26984092855514424
-0.39500386566995244
-0.3480593612134806
-0.11087936218631057
-0.18358248619694154
0.9547071406540847
0.21570110589394767
-0.5320361476044035
0.4428635245326937
0.2905670852054282
-0.9807149720615269
0.03567048989646827
-0.4147873796522506
-0.5532298446052999
0.7463702880038413
-0.980207253683929
0.5975463508657994
0.2817277581997086
2.5013933002535533
0.27200588251883867
1.7137337129123416
1.6283516873041433
-1.480553733870917
0.41392353084811234
0.3952839776193661
1.7762821275428422
-0.6991274100812349
-1.5878940064098612
-0.8362577698661555
-1.602829391069861
-0.7767517353101494
-0.03142472389543273
0.5972609926013301
-0.15423301824033356
1.1388429337630355
-0.5954740590997306
-0.8002978085731133
-1.5778950672246967
1.0442750371258778
1.0077858038142433
0.8363442662969506
0.6865466529347043
0.6852971924650078
-0.15478295760312627
-2.552172331465172
1.2264543376854968
0.4211940040785402
-1.1672813624507987
0.46959694712912975
0.5171301015536328
-0.35915299236750703
1.6297496700133993
0.09064903026057852
0.7090808123438418
-1.4142653834755692
0.20616692424683036
2.217637657314269
-1.7967406391014096
-0.2433897945434901
-0.6846240886796445
0.25985155104283975
-2.1718147844289524
-0.7652707345899821
0.16752447258095302
-0.33041346177220465
-1.0008149765582255
1.0546703866008362
2.0140821009892775
-1.572031188511514
0.07414478705176333
-0.6705138220404625
-1.1782859275275956
-0.09010991265538211
-0.33744013704344444
-0.8103092822250962
0.9194004369069724
0.5607807537289163
-0.007308855744426394
0.3433909700010473
-0.8540423282883995
0.02487451376699882
-1.5044281870101952
-0.4083652049963894
0.6790054568243485
-1.0267690420619104
0.5003141318453576
1.305284556232814
-0.7022641026854741
-0.7630556173250264
-2.0947056161340067
-0.15349579726650955
0.2450754766524674
-0.12331151863910235
0.4009562827339817
-0.7324207057344216
0.6579159207749217
-0.3528826603586712
0.1888929588484273
0.6128517061066674
0.6037133224787741
1.2921381827287137
-0.3274458433304537
1.0521864725516752
-2.55450109586052
-0.507004596465857
-0.7959368553643233
0.12776012725401628
-0.9594597675043455
0.8704359257627854
-0.1810919742266257
-0.08976831583536446
0.48563195400279274
-1.4370501146323937
-0.5812570052893431
-0.3486796892682691
0.44572432413734403
-0.3504099504045298
0.04696928926252377
-0.8225313461306224
-1.0951181774845553
0.5889224768049364
1.0143784146655208
-1.5550621979374573
1.4786507000458233
-0.33792608707533683
-1.2772840553490117
-0.7228625441900329
-0.8615796405848212
-1.3911025173395468
0.10760575158758225
-1.1283241117216372
0.024020181343833217
0.9705280419213997
0.6173591228040425
-0.4504453642737835
-0.14083743896316253
0.3278205549188071
-1.5920650032818817
0.7484062726271246
-1.8969824191789884
1.8131149310989174
-0.5607194058547753
0.23317893552147304
1.5621041925941077
-0.327875398554521
-0.3702240928198678
0.03558502614732197
0.1616892811744601
0.05244406721751173
1.8905810708379764
0.1558341573514196
1.3434733086685795
0.8221531882086114
0.40097807435314026
1.7269127759099518
1.531049870381315
1.1971788044568425
-0.5123439634552199
-0.2812572562693931
1.0779267898121272
0.07171858598894537
-0.10544276304941788
-1.4705360361467583
0.25738310780409274
-1.5542869609067855
-1.28455333598591
0.2524085690339839
0.4652919585678163
0.299647618238663
-0.09384080128474544
-0.6638682840996373
-0.5309642372037519
1.4468382693607793
-0.5677169025107549
-0.237855989165848
-0.09585534986056031
0.01943435767764787
-1.2237570400788058
-0.5680089488702911
-1.108518227370603
-0.4599260556526696
0.4809773995993969
0.12083728912008145
0.30236719766120584
-0.4658440317452418
0.7156623979200788
0.38334471367256984
0.2595629307091397
-1.219810395380215
0.5974364242146247
1.4085077478616321
-0.08415487411019011
-1.3306536927053243
-0.8244319822258203
-0.41615507423687054
-0.7783625451585773
0.44226239900799214
0.7913280408194854
-0.8384421821344628
0.10324598457542714
-0.16233938214611046
-0.47716659295788727
0.49523700012711247
-0.33394639898248407
0.1424299054110989
0.0511100221129657
0.1200388219349311
0.5159606854197565
0.5120026236997917
1.8120792865005615
-1.2660371044249268
1.205561372233846
0.20772740746785598
-1.2935388140926138
0.12207949735392104
-0.8678233544908919
1.245310990374059
-1.0331356369923335
0.7950618777958622
0.5447363915881988
-1.7622094931672756
2.1476734072733525
-0.3377133564731465
0.45667653704492933
-0.31198585283757213
-0.35918622264908145
0.6439403659113211
1.1665601052188208
0.7919509193178135
-2.024796542010281
1.5938808323301052
0.7616481299941524
-1.0599583542145976
-1.0062870714230645
-0.21691053880310052
0.5329925547640202
-0.3171905829978126
-0.0914647700339999
0.45616334902766026
0.651090821574584
0.7058719499170191
-0.09568735618974836
1.0936394903502222
0.8938771371144243
1.5595843018968711
0.06318739134880973
0.44270728328635595
0.9841437103859925
0.34612494122790416
-1.7262433958188852
-0.6012317572821201
-0.9105978062950569
1.372517784637872
0.23545301210429798
0.312758293463197
-1.9012607320605834
-0.5387077839453829
-0.7127197823441882
-1.7925815901103368
0.3140834626535283
-1.46079842831218
-0.25227119546500576
-1.815629869160737
-1.332439160558317
0.006475775465777448
0.4128999934053171
0.8945361039563512
0.5861548589550006
1.7080547696437955
-1.9682302047811104
-0.31611593986950376
0.26992721632240035
0.793217432305921
1.4741867847182988
-0.021177029404986034
0.5059871124106391
0.7122298415873577
-0.649064725263775
-0.9182977900035464
0.28417552588050626
-0.5067927824275215
-2.1720067478295793
1.332594750186083
0.709016029568779
-0.015167121095844763
-0.3923699097220482
-0.791134674846812
0.6433737902955241
-0.7286189153781356
-0.4585170442220286
0.7065312565060916
1.8599768914405554
0.5712444911066904
0.1425302673746404
-1.5762826672296595
-0.10756882441315456
1.32489673027846
2.0540542760819966
0.22950338629223088
0.013797796089079696
-0.3188768496709102
-1.8269424233818403
0.8325495842543624
-0.22593884589270125
0.76120930542193
1.196888670683546
1.83234499352921
0.7494535680890662
1.3615496657855355
2.4478602113322165
1.0455295331416241
-0.5281570034390808
0.38281723259785194
0.057646975959943544
-0.5881240544474668
0.10381857310728844
0.8028553744659539
0.3864711860373373
0.25562693376921175
-0.6195966582944507
0.21818571752530652
0.7067100358985906
0.9050788424802547
0.44007826102526953
0.4795243242442176
-0.38359095343124605
-1.6701826408122116
1.309264072769349
1.0008354156179662
-0.5669305506508935
-0.22034065291929203
0.6799793636280039
0.28856320325322843
-0.1708760844629906
-0.2164955663871914
-0.6369347282389151
-0.2519965619406867
-1.0111698219150844
1.3413097313470812
-0.5369889143606946
-0.4595644540949808
0.17790291961153323
0.4578644204562894
-0.3707720903637017
0.3924010989937222
-0.3289119727561741
1.2683910756749448
-1.2091403426480578
-0.43368392868787126
1.1028792575518946
1.0930731513005627
0.30066252505684055
0.4049720801371078
0.20292529479800472
-1.1460196583075677
-0.04743146627680331
-0.5845008012752955
-0.00764827134444396
-0.9460625969011105
-0.8859688770269861
-0.7960962014721787
-0.645083219280265
0.26890825398812
-0.2421265268209006
-0.25988424991148096
1.3640737752496848
0.9006478354506984
0.15956441850734945
0.3925651972509261
0.14066902655547747
-0.5842580585036645
0.15846823913091135
-2.0555337346738014
-1.1657082585787844
-0.22177277307937895
0.11013063545373489
-1.9617353728900544
-1.967247332681496
-1.2790348555975022
-0.7554775879077484
1.7852729263637526
1.1155873855468266
0.4622519904406326
-0.626559039955563
-0.8880542195644606
0.8828939599322146
-0.6511929049558394
0.08534871391864585
-1.3556232671376036
-1.2382371113527144
1.32917841979853
-0.005780321162430105
-0.7838318956488411
-0.8655127633502456
-0.8373046670668287
0.9201894375263515
-0.17598566885541683
-0.32724699742590635
-0.5430757571411463
-0.886462656297441
-0.6567895746773257
-0.45327123878215697
0.4055671086734445
-0.2696499154349631
0.7268623991695333
0.9618744922472034
-2.1533347288511875
1.9920897045557613
1.87545314397106
-0.810952719110824
2.005390068710481
0.6507031534118002
-0.7282258522005783
2.0476505785965116
0.00770996323846425
0.4229575496278457
-0.2747252521168424
-0.1946443709409062
-1.1484988535163632
0.043513473116591844
1.7319267710063777
-0.8220515751580695
1.7890599106928298
1.4721109505756884
-0.2659678215167995
-0.8320024191701788
-0.1945130289774316
-2.4959580969872146
0.5083041032699562
-1.034420031742862
-1.1912412347200645
-0.5571381419642043
1.0798946774113576
-1.5153387504270532
-2.2769947936500063
0.7669014581657793
0.30257791499726666
0.4029802016433652
1.6564843503809243
-2.428642938589435
-0.175712319337414
-1.3570022934350443
-0.6141042421026768
0.6524416854986566
0.4770462358368862
-1.77752073956077
0.42868875803235673
-1.0431621894914815
-0.7895415696607067
-1.1349939301807792
0.766836967937002
1.3738680594672963
-2.136423014775619
0.8075909708529433
-2.317354333079635
-1.935989492835972
-0.7672287773008883
-2.218000059789073
-0.24920215306289192
-0.7091035280601422
-1.1072175164754139
-0.0940049245270897
2.6396080029728615
1.7827135462743178
0.28409706640510435
0.34638303037466606
-0.696656708375222
0.08263703211831883
0.6110083922150737
-0.3592980112992119
-0.8136903902411802
-1.092858719824736
0.049916387164962675
0.7705657621739392
-0.17017668346587506
0.0761356618442304
2.3016805798668587
-0.28715263158338794
-0.5158107451569947
2.1428878375162945
-0.9765218952628707
-2.571934510626111
0.15372861772951377
-1.547198519463092
-2.6745982573560725
-0.6549638301302119
-2.666171519040188
-1.437100434035259
-1.7633524479377727
0.5605695322575595
1.1395344448820808
-1.0144200729204487
0.2221721162822169
0.4248573338742176
1.345552279239896
1.0235551556036488
-0.18105525333966513
-1.8556442283602024
-0.19525031076514
1.1341555946337265
0.2022986542240677
-0.6834697273747048
-1.3959629622266392
0.8901797121272581
0.6820479364464548
-0.5355704568496791
0.5827107705190612
-0.808456078833382
-0.49322895755211354
-0.16790359777932864
-1.217872375746163
-0.41956697740783977
-0.8837547552079973
0.385609303725634
-0.6007205003824555
-1.3639850840607266
-0.7692166322939887
0.8524522654201507
-0.33097261383315296
-0.3697813713017577
-0.26542339923092173
1.4095272763989206
-1.5223409923626217
0.4112822813395919
-2.018185003410399
0.3528425456137905
-0.6596065130544221
-0.1800570009549094
0.32372758803556406
-0.4877633518223344
-0.6061441902135309
-1.5551373718307526
2.2847343614200426
0.8722308464759231
2.3786744158404205
-0.37384917962045067
-0.06804819292793289
0.6616942564888648
-0.08818347946254715
-0.8902129320159938
-0.2295368997540466
-0.034374468840696795
-0.1413311532077213
0.8033276992410694
-0.967974108941954
-0.9629125070987337
-0.16888995757474567
-1.122553641951548
-0.22648006866413128
-0.8355040320642101
0.43166228160309617
0.1682279838314242
0.9585805378053667
-0.17787304640443138
1.3992794346218913
-0.34298432992005
-0.9055995837400178
-0.8368641679595622
-0.5781621453411229
2.5611117467706674
1.1467148486088916
0.35279177004299594
-0.7780010470402423
0.44370490323547834
0.7178301113398008
-0.6211400894945363
-0.6153880884052435
0.585629351062196
0.7202380349132661
1.0980027258642107
1.194634194996511
0.6846398526762272
-0.4120267895040525
-0.3208626347296194
-0.27464751557107464
1.9656043677175423
-1.0617465226232845
0.019146486648693128
1.2592242401082538
-1.0029802164847963
-0.718338435615981
2.643676617457978
-0.8335875628411968
-0.06076678231088563
0.008601261560776199
-1.3141709221453828
-0.620846962039223
0.07570317671754664
-0.7210458245580218
0.8247212449141683
1.0586804296947758
2.163938812068277
0.652600383737676
-0.5425185565630041
0.02799940520883898
1.4331589502953597
1.6907676251472274
0.6681579384530708
-0.5299574399019675
-0.5759892480867149
-0.1983905914943673
-1.1770400478384802
-0.2083562263688904
-0.09970430135261737
1.2511017780772238
0.2524275940627475
-1.120715417988685
-0.21816850314390285
-0.8998393384837957
-0.17649139360200067
-0.6680605366864621
-3.054467633181879
0.4976611508154067
0.5052285376701885
0.05433724763953487
-0.4181775597780395
0.6058126883436609
-0.33891735392576916
1.034041450228628
-0.20481379962604726
2.247095956260049
0.675063897030213
-0.05601339942251082
-1.0090196394355269
-0.9352483053815228
0.7746135237707709
0.40814232386252736
0.5066931200390427
-2.2558249959188497
0.43251614134114197
-0.6363970328305867
-0.7535451634706392
0.481879592004805
-0.9191645744257648
0.10687851399131505
-0.14532914658284699
-0.58968047588561
1.0551227281174147
-1.2564239030759061
0.5799628135884909
-0.09782740836065838
-0.20161734696234812
-0.2849379135644217
-0.45641647993499107
-0.4057486805348664
-0.23019339293518298
0.3696463161248707
1.0016577536022964
-0.27327422743847857
0.40738013459988254
0.5205696803931934
0.39000960705337934
-0.43792013052967427
0.8310868355596764
1.084069112815777
1.3134783565183974
0.6990553377082334
0.3753347373567974
0.16104082810672135
-1.6235042336900496
-1.3581503974539726
0.8345968268704319
-1.3439383243088256
-1.0813095328824074
-0.021903116408039283
-0.3507892962032799
-0.19285093764965777
0.3398361613095617
-1.3706053788552284
-1.9186598906729282
-0.41834598630957825
0.2417384801980708
1.3956168675854987
-0.9367399977548564
-1.5551273108270571
0.5811229526503936
0.763230460182859
0.15497234719314384
0.3144810602806511
0.16456068648300662
0.9272245073735329
0.5573390395414877
1.2914422092093658
-0.7043701146006963
-0.418695140770706
-0.8716803434197172
1.2797391017092552
0.3808785183183841
-0.029175762740480803
-0.0927873207637645
-1.2657845137679973
-2.4554752367340056
-0.7001288161319466
-0.4375103985673089
-0.12662143547718194
-0.4669503985364058
-0.1985367897584138
-1.2235363089954776
-0.8340657726706391
-0.8996375897656141
-1.9046479994234218
1.421332253991507
0.16597759742770146
-0.04990356244553715
-1.5832421191036006
1.2366143486565104
-0.4701982906036994
0.46369264982974506
0.5551233403144338
0.59334764407091
0.8441624097122449
-1.652089026428685
0.3846926830980325
0.29825991787957246
0.42420368997784275
0.6956967947174276
0.22704861469298893
0.17649716414955682
-0.5645435555713815
0.711298649023321
-1.738628087526959
-0.1269491492080586
1.0252383010251356
-0.3217191408824243
0.05021743728392957
0.9356955443758698
-0.9528138231340599
-3.0854989849183783
0.4825717956760106
-0.3386080764168587
-1.7341895505043128
0.16289626138912974
-0.6988916351334963
1.217441669207573
-0.1802597182003042
-0.6966065873877101
0.05695428581931348
-0.7377376977381234
-0.5386727215399761
-1.4806703203403966
-0.4929859141014682
-0.24630694740598685
-1.2748384662187422
-1.0878909070056948
-0.8852411771551919
-1.321572897985654
1.4846387285644245
-0.27130095415894584
1.1834546608107763
0.7854034560211537
1.4193555676766092
-1.0807630032407136
-1.3507792374885568
-0.7676640290564366
0.5774356115157351
-1.0444453806882532
-1.360024554815875
-0.7484173044192021
-0.08904928850465423
0.015626439478533052
-1.1197111931958426
-1.1935048916087558
0.6740397041499729
1.3995559436582223
-0.24491201379467178
-2.0081256741490834
0.6328355429413351
-3.5255786311246418
0.31363692493386364
2.064512125173835
-0.5043434442818845
-0.7742934923168129
-0.9940109989730488
0.3812848335333756
0.5209130368341782
-1.6129733918894533
-0.22572316346382565
-1.3529893651736076
0.1441520857276137
-1.4055089718891174
1.3243158932668913
-0.7280720050539997
-0.20568859868546585
-1.559841525891414
-1.6334443449014024
-0.008754655495414071
0.5467895804618158
1.9494634786884408
-1.4737461426106957
0.35476329957397734
-0.14158274828175843
-0.22349169264987548
1.4490595108711835
-0.330790038051591
-1.5324282825224602
0.5869232672984421
-0.7152181142154288
-1.1363966766687696
-0.9581562923307838
-0.26671483452969347
0.7980453788917292
0.36854146455411
0.5525734589441584
-0.06414933115485938
-0.48551856873178695
-1.5177408678339457
0.9699389086252401
1.437490330918524
0.1831437136851999
-0.11666799912380908
0.09895970123597385
1.001957758033846
0.54505681611628
0.31243435671136155
-0.6875286224967418
-1.5215999683112735
1.1745896990884173
1.2531712353976474
-1.1025999022338866
-0.13434584408603314
0.9138907087051179
-0.8354994577120298
1.1628361587134233
0.3161556688604206
-1.6215667841884576
-0.5860295539344246
-1.5137818101243592
1.1401307071538587
-1.5292777981717571
1.5570160208092794
-1.4178039203072288
0.8689525623313753
-0.8699936924007752
1.1714602003930727
-1.0705279587993275
-0.8742932961521661
0.8596615803260383
-1.1388240666477818
-0.30865027695151676
1.2552927594561147
-0.222987222882954
-0.26264420094960583
0.2018600808355927
0.7687915596513751
-0.3218247607899645
0.8489954963396827
-1.0322206629307584
-0.03499394928481388
-0.24223698801359553
-0.5236087175033165
0.5594362245753591
0.8610449949488488
-0.8905472366142386
-0.30803605641138854
1.0760778344157165
-1.489071036052086
0.8837921223534699
0.2534468869294454
-0.05847118397844441
1.341904884099079
0.029140978504898146
-1.083657580340611
-0.4752512466899331
-0.5069705684131329
-0.615890000817538
-0.13908109895977488
0.6875984982785316
-0.6476947904882634
-0.9599175815986254
0.5702537415590704
-2.1375624559028443
0.1502882200079891
1.5240067513339917
1.0120991669124657
-0.15772298515008254
0.8341700862190786
-0.3091218435320315
2.3417743381849694
-0.5700216875604018
-1.7841238954449037
-0.3100918644788181
-0.37233121800248414
0.48740434828189416
0.9325531361563458
0.6344901865378105
0.7500240934862779
-0.9268707618596043
-0.59741608120258
0.46619453880014783
0.619224743881978
-0.6093988707321918
-0.7103069356378724
-0.8536667237872767
0.12636566340144093
-0.07883088958674772
1.2819282567467538
-0.9394983784619227
1.3513675219667938
0.9337909222710181
2.1492833117515358
0.15038564334795232
-0.02585616764181893
-1.439562917165797
0.06609320714775604
1.310880316647524
1.9618128019250034
-0.07149894280481213
-1.2892284836042551
0.48600773259906904
-0.7179720583834649
-0.7861683189103575
0.9459396477231405
1.0154161603075489
-0.8481308473987061
0.1675497662289297
1.3147755143714566
-0.7261134383792647
-0.6251490070517347
-0.0017477005660758527
0.630259736683247
1.580105594165949
0.897037666300882
2.341558031871203
-0.18430923563199364
-1.014377971625715
-1.3661471425404226
-0.17614324942426499
0.6298062730305184
-0.3349671945881045
-0.18307844502975323
0.09148489614337149
0.3939658826515053
-0.3179429811027189
1.1522274964208734
0.03884448883245039
0.006242581996309138
-1.6026106081352283
0.15212855456000404
2.443115380308032
-1.1243204685666746
0.2444254304476437
1.2234963322212924
1.1929932374512202
-0.5917071999818719
-0.6478215715401245
0.4983725795307985
0.5049309593543974
-1.8798892314416602
-1.4847017285889108
-1.825849063825905
1.8447803889160324
2.3797477402883302
0.9601462381077217
-1.0555881933805735
0.37738432788147075
0.2520848944133524
-0.2820238476612654
1.2015296211439461
-0.33698253292993646
0.6730511392122214
-0.18134256444619729
-1.3011565630911652
-0.15714434914460873
-0.6958209905121522
-0.34024339668375103
2.6636821574274077
-1.5818981428976413
0.1550853806657136
-1.4537626704425315
0.45081212994994146
0.33111830023030453
0.8310601946843791
-0.07539396493095553
0.5716317238065718
-0.07976699713867134
0.08980350236309924
0.979234763623071
3.135217831075594
-0.05218894353637477
-0.5738701013164809
-0.16286924124464933
0.034789245971460124
0.6419999810119671
-1.075563421988404
-0.009720350695752535
-0.9357829876829467
-0.2769983484856743
0.6119145465309791
-0.14035180086982596
1.4699536570876945
-0.2852283987786183
-1.8507275851238314
-0.9564809042154004
-1.6417765830713762
-0.26977494297469296
2.2735666988181977
1.348722280007674
0.878477371051643
-1.6951231577240664
0.2184895601991759
-1.1067218114239965
1.4930864032717848
-0.7890331995953724
-0.5982177592330976
-1.3100141037739634
-0.14078515354463625
-0.3754501233849234
-0.8133990065463397
-1.5679106173815425
-1.0103083186455017
0.5968806172726195
0.07241782011558458
-0.08288558448373612
0.14284484997693303
-1.5281426947928816
0.5846585271746463
1.176364571138235
-1.852486202775786
1.7529488779255054
-1.7046698862083625
-0.9998729145216733
0.771453507365885
0.11390534259361969
2.1874805715623333
0.4857691157198843
1.5674342246147797
-0.20870790541873874
-0.01575514678115168
-1.3740425549561481
0.12090228885092187
0.5310287328499586
-0.17880517196741286
-1.062837457377284
-0.654564360676469
0.36035828262763003
-1.6620248933758097
0.8060591432884361
0.4738710802496263
-1.510533245795385
0.1907431654134439
-0.9877525975268231
-0.8386454870295041
0.08830404052822324
0.886207945587807
-0.6116105939685961
0.02441707838197731
0.9616763479957149
-1.523572991278472
-1.1104242861812343
-0.2997065666087505
2.4444769529799535
0.36984606793582914
-0.5355130017270239
-0.4180758305957861
1.002651841923316
0.006002487705374892
-1.8680867076082357
0.4837496792414168
1.6139341458958625
-0.6942550468596982
0.5784936008983446
0.02252278990085524
-0.35865559972777256
-1.566668640293268
0.9917447360868276
-0.06720899257688481
-1.2210538645052087
2.2743442164145504
2.689782543188592
0.23424828902328165
-0.3611515992374247
0.13478234573855774
-0.32125915954744316
-2.0091003150801026
-1.5412750274247171
-2.246133178166395
0.6775565015379023
-1.4246529532182688
-0.4390710752679897
0.7061078099519752
0.8637662482392979
1.8180476333297881
-0.38038574688455834
-1.246828164763979
-1.244090822618552
0.2561115936514409
-0.08912980663539986
1.599532348520006
0.07014497847487902
-1.3650918634496207
0.6513339269973071
0.07903976433928361
1.8464928751501979
0.5259908814311116
-0.27645193187555084
-0.8891963434921658
-0.6844685703786435
-0.6306235866197926
-1.072655253831023
-0.27674484540371647
-0.8587459403571445
-0.9094830349591353
-2.0430405941307437
0.3586702932025582
-0.44158093661072656
-0.22321999664951794
-2.3368536169014176
2.148983158483535
0.40065682920151896
-0.33551997873819955
-0.0047866859162668035
-0.5749281468423432
0.009964260331017728
-2.32132141148297
-0.6093052873307035
1.0786405105264674
-0.9149975685355388
2.5974039727371445
0.8786894098403829
-0.45414894329429917
0.0960965992563766
0.5165522265138669
0.0016343734905382669
-1.0746500249337942
0.731730395718599
-1.6182317004772029
1.0045739353791998
0.12277788396966015
0.5447787135056681
-0.16244680172044396
-0.5950562278717663
-1.1798976822040714
1.3518024070766839
-1.5265581068826122
-0.32731072625745783
1.1287296966330012
0.5356999739737851
-0.8691298841825346
0.9442107222123121
-1.6065647877926799
-0.51908979023073
-0.9850939385483944
0.9386509193280231
-0.0872468434204218
0.9627372296036768
-1.57994994236419
-0.41624272384876065
0.11309577445427005
-1.2541400302187127
-2.0704054355675794
-0.9686427676778249
0.6983790189939749
2.058430247977584
0.5622305618572169
-0.009917541410146474
-0.09036006630384755
-1.685177534098902
1.389302345178443
-0.2667154209520324
0.01767321688506242
-0.19864383661133453
-0.5437213041690946
1.0325873351366317
-0.5107658154310388
0.8693401392843538
1.966006002016384
0.6629710587088633
-0.23725548189368956
0.16241559245282555
-0.23391722189773423
-0.8476859996944534
-1.3365696223289487
0.19391197193684212
-0.6103411830397175
1.303449341098666
0.5457202491538788
0.24392979673022794
-0.68147169126368
1.9535619224095815
-0.16298842094526297
0.9242429090841352
-0.19916858745864185
-0.1645809400913374
0.3957336832150694
-0.5397226352917227
0.06076607865505265
-0.08469184074563503
1.618210832298059
-1.1745773142063636
1.7227166133393117
1.122291587790443
0.34523127339376225
-0.11071653577522748
0.8672294510429892
1.4356910927036728
-1.5464409443075042
0.5661715535894644
-0.24924604629257355
-0.8108798656242325
-0.9236535511062386
1.4421361648423714
1.0247715529425645
-1.1218225617621957
-0.5757210255179581
0.41454356098878253
0.4636950108758564
0.42986318399892415
-1.3968193869181431
0.9446709966140832
0.9986119643137569
0.4784643200214868
0.005120321609434208
-0.1833185604233622
-0.4604172882582554
-0.6795354783867872
0.28981285614338603
-0.9172868650589369
-0.8684198067099814
0.6998535340014239
-0.3349497933789938
-0.34991315768310155
-1.0289010173876805
-0.6160158425567932
0.1498463196710019
-1.097482979855019
-0.7263777535033628
-0.7604111887687944
-1.8702176549735117
0.5024794956927455
0.9135801446202657
0.5205669067463956
-0.7963636367575312
2.4200097515149452
-0.42091562155892204
-0.5329736477465142
-0.0320452162137711
0.5361147040626321
-0.44032585248904027
1.057502092068704
-0.41780061849472544
-0.9088174032120667
1.7640167690748814
0.5253243773920613
-1.7811932514385327
0.6303640180793029
0.25061840271905167
-0.9823374859379777
0.5079870764419264
0.5002707834004019
-1.0772872460057508
0.08932493382449909
-0.17393155324239504
-1.9772748405996114
-0.1292379563636964
1.9713166858846711
1.1670862126961299
0.3388074942149079
-0.5347385685462985
0.16134571098898
-0.6064137442096886
-0.04151177585989465
0.518914760406069
0.290525206164011
0.44118218350279703
-0.5692216156672173
0.03046861027092766
-1.1466246849296913
-0.08724822332514535
-2.218637849596794
0.44056772796589555
-0.1583491494119736
-1.3343683026468605
-0.08127215993409813
-0.013438061811678207
0.7280469014873735
0.08363691778053485
-0.7948912295474982
-0.533462399169482
0.052823094359400594
-0.20145312085103192
0.040421176944647155
0.8229258414050793
-0.13347293909175315
1.2501322360713887
0.08453788183486088
-1.9417375801369066
-1.539600162481856
-1.5675575794282555
0.7144026765006605
1.7678697626704243
0.3067702308341253
-0.532190179136604
-0.6036319539329233
-0.8338659550871828
-1.6277476933706032
0.631985575972611
0.7019207148779427
1.3032116088107764
0.5016683628127729
1.15381197538062
0.21263281576697418
0.9637735336115809
0.5332140700220634
0.751985440439086
-0.9379704084586606
-1.4020982017750345
-0.24256051405254359
-0.0866266629558891
-0.6940128714576154
0.7056519176908461
-0.39274989156768775
-1.1395152402405992
-0.2757246301422284
0.5002022221165696
-2.563129615767277
0.3954003582290648
0.874994103828283
0.5098871681455357
-1.5151678241638213
0.2676668517427054
-0.2709698756722156
0.026808250243273726
0.4780200766055321
-0.07627417254762726
0.09436641407154617
0.25240115712466815
0.30058198280763654
1.989496418311833
-0.07822956457787357
0.16761639152588814
-1.1774524554406822
-0.8480288031074794
-0.43489894201695656
-0.011489324014447517
-0.5931083061669029
-1.3438997662313557
0.5361402897187314
0.2517357097635743
-1.1328810609725173
1.0577125107397196
-0.05930679603187702
-0.517720882957797
0.028772204806873477
-0.9933984753319137
-0.09414325754212771
1.2906629520228776
0.5576063113348464
-0.9349712994776017
0.22807584211225893
1.423455179730359
0.4236982812100775
1.0588539904686838
0.6295450852538155
-0.6516857973463579
-1.4990721063540808
-1.0560142889187294
-0.5685094101783725
-0.3075744796531996
-0.7902971812273726
0.3723229101335639
-0.764104072093636
1.816466463607691
0.4814555265900362
-0.48735420383137107
-0.6279951955772493
-0.6279848220229443
0.610666688716792
-1.083671847827758
1.1870368412503156
0.14563410620923242
1.1373427913723353
1.0048663393463757
1.4280425940829908
0.05632524942202772
1.0985831362733451
-0.35095896884906147
-0.4860411257526362
0.22622586405919015
0.9371415150341945
-0.3982410563052596
0.11518358159830944
1.519137093926081
-1.031817914163531
-0.8090210686321134
0.4770121227677935
-1.9174737434828253
-0.64878860117772
-2.1926775599117843
0.9172579360653514
-1.8549389254175208
1.7901449945187127
0.009634270171592161
0.8076597636934402
-1.1694806921831584
-0.24613632455444634
0.059441817749516665
0.24865939808361495
0.25381326416341204
-0.007481611666211202
-1.1569518797749563
0.9073437852454571
-0.7849037825646507
-0.7410955080641052
0.47936614782578685
-0.7072620481319694
0.5955028848933102
-0.438224050669487
-0.1108560790558021
-1.312597649053686
-1.2179298173125106
-1.10045910379846
-0.3096776702105015
1.2237712220287853
0.9503114565778761
-1.0039285184342752
0.1748465886242164
-0.2097279536212402
0.782653535329548
1.0654177714795676
-0.39714462422869834
0.749067087589699
1.4882152192353402
2.0667624544474696
0.8292879939456284
0.5385884600826512
0.29154447015360313
0.7302052265220647
-2.0706384783094647
1.1832214792945963
-0.4892396681831825
-0.6505645537419155
0.2893146093813815
-0.43689818974019146
-0.6948056386818176
1.2366986225019565
1.3704999704416825
-0.6646117511697779
-2.4207853566060966
-0.7120419859395205
2.0779199093463134
-0.07351417181689854
-1.3316710494198531
0.3350525625390965
0.3668030974318072
-1.893004197947293
-0.4733526745291271
0.012368499633310916
-0.9335221612183461
0.871151658103038
-0.686729075434536
0.6852807522207828
-0.1455672945294408
-0.6061321428051494
1.7975616876863996
0.4259436049351855
-0.3520328945527291
-0.2061019262236512
-1.9765308332991751
0.4977208011760199
0.8398569357067612
0.3280947065163849
0.31060842057517213
0.03258475580743818
-0.44318030766340044
1.2174246514526643
0.673043885470953
-0.2594267188146428
0.11855329304863976
-2.400886909212228
0.4686798491558614
-0.957033241780319
-1.2804093019051324
0.051275448032257386
0.9879532567750953
0.03835744817448218
0.8980494646180168
-0.39279076575686905
0.05211009692673716
1.594629259747972
-0.12645041198633206
0.062109498708588326
0.24285855243550106
0.005066894612772025
-0.08282085856100183
0.5956742638250463
0.4050740590729153
1.7537992302586947
0.1418539069364975
0.2646686406305185
-1.2690778628242285
-0.2985392457198448
0.6641941997639507
-0.2925147130704216
1.3400720618186706
1.1093715047547175
-0.3473575234033073
2.267163976253649
2.295236408489253
-0.06776487670070792
0.059256515311422446
0.4057638840860395
-1.1091675485155288
-0.5391236221080823
2.1528975609249716
-0.8543383599596792
0.28751985211049025
0.7685649445298819
-0.22533692888525556
-1.826543784454478
-0.3388741914524631
-1.0687351251954955
-0.08179362520002927
1.8365262308206958
-0.07770666636135512
0.6776173782829895
-0.04478223838594471
0.2572459804470157
-1.0186406061108768
-0.30659743627969077
-0.01921835955285031
-0.2584538353183294
-2.3046112382552546
-0.32163809748406696
0.6292395056900387
2.2071331591896373
-0.2723699728306913
0.3655498580896327
0.7682606129483898
-0.04472462590311371
-0.9477876006716569
-0.3157653069459463
0.31803148737454506
0.3803633622173667
2.7913439509683258
0.26961014741426526
1.1655745538542532
-0.24065526055951236
0.6800862020868971
0.4948488671652154
-1.955730171040744
-1.6542845042115346
0.860284270277927
-0.7285260814978243
0.16767752569207434
-1.5332009328464165
-0.414019117638917
-0.5527837390013453
0.8531014834842019
-0.6079466702864622
-1.0918793453470077
-0.49972923368255445
-0.6425383307307586
0.21950255797993945
0.0434421388304886
0.3626258878050612
0.5409385830461506
2.7447026312073364
0.09094383342817498
1.0018730611082018
0.1635961831701455
-0.1565798184111677
-0.3069291311998006
0.1946695833449356
0.3407739750827185
-1.1404892421465722
0.36748706667158665
-1.066094474500055
-1.8600401006200333
-0.10574760138584478
-1.8562697844531393
-0.4284802668423535
-3.1880415699642177
-1.324215212075647
0.029695982231646847
0.03936366319679814
-0.31462286767033415
-0.8985724150382699
-0.3308028605466327
0.02910716442908601
1.2030358843144782
-1.586599380995743
0.6077167496436904
-2.1048645896829794
0.4447435071167918
0.5977753726117316
0.051754174842407685
-0.36273476759998957
2.8394774963349176
0.40342035368470575
-0.5254443284999254
-0.6420438844349574
0.7125269780764232
0.25424997169666436
-0.37909822539314575
-0.5031638425333133
-0.804757476254023
0.22145160922283874
-0.38454832243866194
0.43124523090700373
0.5976546015163247
-0.5235957667443191
-0.22163830866870374
-0.5662442529962811
1.8391301679965546
0.003420370114253573
0.6807385538783762
-0.06454881765092647
-0.8838845077045031
-1.781891377948376
1.496853605646274
-0.07158106199071752
-0.6382078554540609
-1.078487777794343
-1.1054642583478758
0.7935538254608231
2.1924243059180752
0.0546709844968131
-0.6356042353893411
1.2155205975786285
-0.492090800521009
0.5915141542013549
-0.0034286135967772943
-1.1106834875340206
-0.04299735498365186
0.2686053953054144
0.19784876666625334
1.1315012416296026
-0.5692705856848409
-0.9229143533292204
0.933816317519574
0.7757922293658603
0.5891450802823386
0.23576141894716526
0.3374965272626937
-2.0284104379877133
-0.352752577293001
0.033119325884509034
-0.846240362319685
-0.00939049370623719
0.3441621286854995
-0.634277403986486
-1.3610411820684003
1.238504652404269
0.18741972481185004
-2.0202601441364463
-1.132973293029708
0.281500215429561
0.4920816568909682
-0.32447362656040907
0.09008597357777003
0.0405882281691164
0.7310969040692291
-0.6108726650849208
-0.05807496531335449
-0.38094793005111255
0.7504356713303194
0.21685573953459672
-0.6828923034188608
-1.2402175676042788
-0.8145041149819782
1.15976730747955
1.645314664900934
0.5125866382118545
-0.34782567804670134
0.3777999379435025
0.16380672175491298
-0.7278010036240258
-0.24090052337095774
-0.41394561170458155
-0.551016656802733
0.03253951763831078
-0.664039064738109
-0.10433649647912076
0.12509708543544884
0.49364912733455474
0.9881436212991462
0.6436950516629237
1.6179509316995926
1.484971090846421
-0.8924340807066177
-0.561734979045588
-0.33463373060447815
0.05396124339351963
0.4757566063670119
-1.6391167553956556
-0.010730267093238268
-0.012632138108992422
-1.9137940585857973
-0.314766468786314
-0.1325729073578434
-2.1349470743421417
-0.25719553866273076
-1.2456944725864232
-1.6845539494135218
0.5184188026679233
-1.5915640229100747
-0.1981101854126215
0.5434825793792716
0.35016226667246964
-2.0909628031618426
0.28750245947959424
0.6289972506318922
-0.1722915421070141
0.6605252970943417
-0.9250678803394659
0.08362580232286058
0.1131235078843039
0.6536616019781418
-1.8860611043261575
-0.9394147526938207
-1.0004269269223152
-1.4789253304350165
1.4570967047737478
0.790411618760368
0.5424671640560452
-0.22829268818577875
1.6661455402378316
0.668550650202068
0.3857535351528921
-0.19331946411395448
-1.384379624011598
-1.649041309056243
-0.886570368822144
0.6481434276494412
-0.4391635956382649
-0.9406925877529595
0.24610876796436798
1.4973110935918998
0.5656866650242602
0.4576681867920713
0.6824402544192706
0.3858552546137633
-0.48382452473890336
-0.33495311589659393
1.7222761284245784
0.01858434858543619
1.335410538728646
-0.15130399936837088
-0.6253234457116643
-0.2292414358721197
-0.8815656572473668
2.383304450804263
2.202599384911602
0.06263308192131994
0.21117329995297685
0.5972428806181863
-0.47242936897488336
-0.03164841459272376
-1.075870418969487
-1.116036690449748
0.2594962589570362
-1.783481791890336
1.6678450226726331
-0.5183186236565713
0.263423159972749
1.0162641967934536
-0.011147159173170607
-0.1943252611366114
-0.019832617879653885
0.5162483208039514
-0.3256673114966433
-0.3582741754867757
-1.328822413355245
0.07061051543023608
0.5476044912591991
-0.7035836402425663
-0.4187202282201002
-0.3269210382283184
0.1825234773567913
1.3727253952524852
1.538092312477153
-0.23925641288656677
-0.019570243839542444
0.8930087703645544
-0.14678294506616535
-1.0328566456506527
-0.2643685063349563
-1.0366858292539634
-0.42027526086337785
0.9403263196891213
-3.063178060129805
0.40090605364304754
-0.30048840040580144
-0.5216080095463009
-1.440989542482648
0.3518032317172776
-0.11033058644595782
0.1552595732395375
-0.9586261549881744
-0.8871678824371659
1.2139525670357638
-1.010059464303198
-1.0376362505458518
-0.7418617096576848
-0.1999313634445021
0.36766513073505663
0.9884537590906798
0.15635811342252173
-0.5918795024361224
0.8425384815558384
0.8512302196194531
-0.4444192016285359
-0.06414842200620237
-1.2974316319501875
-0.9347953877426671
0.9180740287342362
-0.18463798385437064
0.8388911083299486
1.3341193534620472
3.2553272780659817
0.5187564990602903
0.03502364683934246
-1.7327340007665326
-1.8524451489131764
-0.943393283259335
-0.2528187675940565
-0.9754543959151668
-1.4065028615703332
-0.45345841837899914
-0.5277340273069068
2.4207356134622167
-2.1300565977888577
0.26590287142647756
0.035644168977716
0.7683636356113653
-0.13935812184678045
-0.6437465107295525
-0.4883221181721651
0.7321844288151231
0.3244379832628635
-1.149629548223423
-0.22975928456398936
-0.06413986240369797
-1.8620586253556237
0.19974251198394968
0.3664736597914281
-0.4875471305037796
-1.6608458513336886
1.29795665824434
-0.6329400080841067
-0.8768942352575387
-1.3951230854827086
1.3613986000855174
1.2023957384323571
1.2256335399094735
0.35467441120827087
-0.06423425826949397
-0.45588293236476596
-0.6317476865147377
0.5047172258501819
0.06821624870924059
0.3552558197833921
-0.7681194738482808
-0.5525790758457685
0.6603907822873796
0.6340653200229622
0.4592496811107527
0.5153122758831429
1.0561797834876712
-2.26205345971658
-1.1484155721831535
1.5856256325231897
1.166592163287971
1.6572126882599516
1.2035562241168347
0.6351687196311147
-0.04892726527779698
-0.7196892390113246
-0.007747902836659323
0.31440305067319896
0.8935208047126147
-1.917388652254018
-0.9642041270716658
-1.2019385270713343
1.3064158028072292
-0.909361180321946
0.6317398633910636
0.22564880596913922
0.39672742717199566
0.8006526738086106
1.815922093800213
0.44892960166855567
0.15062956617830744
1.9276620690723607
-1.6641998380121317
0.15800991161544414
-0.9916748218976554
-2.1430632684851054
-1.3528480493841482
-0.5208882378060997
-0.9448365444155634
0.4050836484203158
0.7121261641037059
-0.2049842689779925
1.2537933201640437
1.4197802839023637
1.5258634032913443
1.125860783846644
-1.667391636172641
-1.8698262669845467
0.21703636124535314
-2.4872514547607625
-0.40626119209472233
-1.1097788282335748
0.6996402000441754
0.4907217502199461
-0.8713285842897702
0.7845650878850656
1.155138480558108
0.19683057257731734
-0.11649078070628661
0.47082935713513807
0.9698000295667699
0.4765064818361689
-3.536084613552511
-0.7922996519761616
-0.9359675270462205
1.2434596022107602
1.6027340727951234
-0.37427009384721643
0.4056554021253078
-1.166999642227532
0.01739955953459954
-0.01649099613946858
2.00326627070225
1.2485922574558943
0.41619265150340057
1.8503871299317178
0.19539997097560313
0.39780870770045285
-0.391324390146324
1.76527267231646
0.5716245626694748
0.641767255924185
0.32443915555141767
-0.7070788030004446
0.41204721508911013
0.8726676615776926
-0.8310112411595068
-0.9341881849542713
-1.3842539848659847
-1.476176292146465
-1.2737540423883267
-1.3191033203717821
-1.487877386986102
0.6798579399728851
-1.085663184271367
-0.09480997083865968
1.4946953906154867
-0.3856887294316806
0.8786275638237269
-1.082107805501528
0.3861018881032322
1.8637033619209726
-0.020698500819275843
-1.211545384292996
-0.9211423574051
-0.34483427933067523
-0.6542748935987115
-1.642169230204457
-0.21444400317653314
-1.2368146903540878
0.6714554025977458
0.06519997934010949
-2.284452775777243
2.1847626729377088
-2.039236330334768
0.5449621397574285
0.10318057778150236
-0.7314577182700774
0.04400019626772259
-1.3426645618737534
-0.7422564784537449
1.7321568621143268
0.0418725711122352
0.8768138840511736
1.2806393048011175
0.7279717438987778
-0.6278052931677803
0.5511240538475688
0.7809585200710856
-0.5449808559894518
-0.333232270719261
0.7549392791805842
-0.14675332400685906
-0.19170347552883452
-0.10045985229488784
-0.3270891016934162
-0.8103196439901553
0.24899379973397537
-1.86152504372001
0.17843108910735483
-0.7313486433229619
-0.5671743283785222
0.9401803272969099
-0.13024425863522238
-1.577909941722186
-0.9461038014125708
-1.2007090240708644
-0.981529372590282
0.24193383380061237
0.12363480509231849
-0.7751100548709906
-1.1729745611352078
-1.6656123122832542
1.2233905760306938
0.43294216273057173
0.8043032299876796
-0.9460113639652099
1.6165600891045169
0.21770516806223827
0.24245671134105326
-1.5110762099261137
0.25158656482108105
0.048014587689212046
0.5112598964121536
-1.1586142796198926
1.5010753672052326
0.2571762961508897
-0.03070492068307624
-0.21713720670961625
0.1385861783695446
0.019929217886188216
-0.7710576319641855
0.3495102799546961
-0.27095899597468076
1.1318719785720142
0.1567884190312743
-0.9307058139143769
0.9801361965505997
0.196294924490416
0.012406930791999667
0.28743328776632265
0.621003296853761
0.4041312495331652
2.3385196617106887
-1.5953335494752634
0.32711374434514984
-0.5200839949429427
-0.8257741449158843
-1.3907195486136763
-0.5808874179181296
-1.5037197226503292
0.5322653741274271
-1.3028278905275508
0.004632620044417334
-0.24184294981563412
0.38946425614877755
0.9020003305727436
-2.6248648390564573E-4
-0.9231173397902916
-1.350311202272233
0.5852853752583447
-0.5450420337113613
-0.5313255294117687
-0.5682421172912097
-0.21404279170184612
1.4256713278112065
-0.22351604142312875
0.3752339650878867
-2.2063621821402646
0.43499410444818304
-0.3208999769055754
1.1201095758434578
0.5122295305348376
1.4724119395042357
1.1616154659273425
0.13598916516339868
0.15258632883379666
0.5263219577477424
-1.103856488088187
-0.5716458928082324
2.165880845740135
1.2461550148493439
0.44238489749029053
-1.3294715059889792
-0.009121385040835994
-0.22864158390018946
-0.18273332802064363
0.41410021478333836
-0.6196753315929009
-1.0260916509270885
1.1157124678101442
0.5360629915286527
0.10398211275482235
-0.06841884187913115
0.4327369317386358
-0.25343650551671343
0.20316930933939623
0.022187327713584976
-0.39608187182547205
-0.6717467602403625
1.6060226121419678
-0.2741443930665141
0.5487231528283627
2.270303002079737
-1.4665255539662079
1.2016033823774532
-1.6174977910816504
0.24828983703993643
0.6742549926142166
0.5871328849912931
1.7570029358510637
0.07733469967333843
-0.8629554332407416
-0.23589257753294426
0.6977103328709139
-0.011439756349736221
-0.5735712742900183
0.7128519012976594
0.012792308438955857
-1.575456076066926
0.831070813590262
-0.6282136800266814
-2.124648559927913
-0.19125753692003966
-0.8827530460044954
0.4253717037611387
-1.4967743155059292
0.827367705647585
-0.497187018544804
-0.1152008169095267
-0.11173555223166114
-1.323405161929864
1.5808824585981756
-0.5113169276051462
2.2681077766155244
-1.816747082318156
0.6047347373439885
0.3043628866835896
1.552089857690201
0.18446119800394709
-0.6172548689392549
0.18603160428204324
-0.6932680537278008
-0.27031658614563325
-1.3927859758935484
0.7826331861980477
0.21743812344932198
0.33279524605833755
1.4740608684129817
1.2900037643103652
-0.26444296064324996
-0.45821480667910275
-0.86302016887574
-1.1371521595315
0.6869667922100265
-0.6176086008161543
0.3842573285054644
1.7990935035295599
0.2895335920304725
0.6379817691441795
0.2400189512799404
0.04689055780489042
-1.1180936733628912
0.09365433412347836
-0.6021493894417473
-1.1777200886686674
-1.271704664752008
0.36148669347022516
-1.0692515574201018
0.8077340974237466
0.07466155998935517
-0.27879400075964933
0.3187522876537136
-0.11785215234862212
1.6754810636258999
-0.06994765320642712
-0.2729756151077819
-0.22817577453733862
0.834918875638714
1.3757063773535618
-1.3917536675383038
1.6655472657690522
1.4510824925970094
0.2899952265917644
0.7213752550258051
0.4665822675838465
1.231696294472471
0.3658597476651318
1.155517552123842
-0.6334558164220419
-0.2631450867948176
-0.8018657368419954
-1.2737297233501306
-0.8154663392219534
-0.06408042456310781
0.31599110798931856
-0.2413062900803126
1.6785129250885422
1.662311787411679
0.018579590797462728
-1.4581822270533105
-0.8209062509291389
-1.446079259342131
-0.4325481910076884
0.12291131092382263
0.11177693000100483
0.8866723572372242
-0.6955854499112154
0.9349166480797665
-0.6081119554412783
1.5515235573721937
0.09470943829485873
0.7165703004655255
-0.34787904136300524
-0.31225432970642947
0.1202504301553301
-1.533693282489629
1.2432337756991112
0.32460003730599596
-1.2128277295577667
0.09399539701004825
-1.715762917136982
1.4261465500991222
-1.4445236610508445
0.4514915177177534
1.2967715974839078
0.30738129509113626
0.6626938923317767
-1.284363661738307
0.936032067451974
-0.34679326340302025
0.361802588197061
0.040604559661466776
-1.6945251318445265
-0.7808961875348999
0.8418978000930595
0.14837293084524894
1.3393919421282832
0.5161951211729173
1.2289057355088913
1.017252496809262
-0.8080434887913093
-1.103321762597586
0.6158283106338108
-1.4996126200790343
1.8204892010369225
1.369528927057855
-0.35847920380833204
-0.7897011025812184
-1.6260562295005996
-0.45863061274042466
-0.02776611805078554
-1.350770842650519
1.7216536404846317
0.21854422648386776
0.6607957828804362
-1.3287331668663829
-1.1085632594247214
-0.9893943533718457
-0.8863828432315927
1.973297030370542
0.8915679340862426
1.307680004720722
-1.3951083396131114
0.3889087903535103
-0.3830715858819508
-0.5512364526570158
-0.21123440154362141
-1.2205496397008402
1.630571449895287
0.9917949848901322
-0.2841869291232216
1.4929453153897987
-0.3097700886936864
-1.4609345991243794
-2.727670696558854
2.390341684850338
1.2787863306723626
-0.5461444925342217
0.2233859569783653
-0.6423455682300044
2.6276335312173766
1.1034173498508733
0.14302215958605716
-0.836226267165609
-1.9294378453317167
0.2903166596685571
-0.5508322131017331
-0.6011540248557353
-0.33172865416961766
-0.18442369071725087
-0.6138341370254962
1.4394407436803993
-0.8778695514416913
-0.4084218155698457
-1.2037361721323545
-0.6686301955239379
-0.7312253984370815
0.4064608517742525
0.7374962736480267
0.22013971276945066
-0.0791097323639914
-0.42660270857144483
1.9201047951610952
0.43411450388157824
0.7228292794764514
1.3409811595724286
-0.7690704841868344
1.1115686355618066
0.6469665247236289
0.10076231460616032
0.6140538550893637
-0.41340272734595135
-0.6470607206190496
-2.320493948321329
-0.17627714140839526
2.1843089428824802
0.43662731953369244
-0.20109537173668418
1.7620469380387014
0.6358813495514233
0.4837485428894719
0.5499953283520953
0.4232239410297348
-0.5600848239367079
0.9222701151815329
-1.2426135646982728
-0.5151276068262061
0.38548170924830477
-0.11852656813134498
-0.35646075687079753
-0.5717258818897738
0.6162118634320036
0.03414922487000274
-0.9996327950798952
-0.6338046613469892
2.4428008076757606
0.5883940840233524
-0.9519490260952104
-1.323223984277198
0.8139847023588473
-0.627137374308776
0.8780227331396345
-0.5048917591309311
0.29196079281074666
1.6463575363384166
-2.291236013672127
-0.9188204122022419
0.20093964865701486
-0.425114177019544
-1.6730519148277603
0.49005372176838974
-0.8356148635243289
-0.5618533256490877
-0.7714345488561053
-1.855668788883895
-0.7790382475784626
-0.6340286705203783
-2.2152528895541574
-0.7104193167055817
-0.8082509602010622
0.09406302476891353
0.5951066930797525
0.464141344691669
-0.7898310943602458
-0.2671742043824303
-0.35538752866066653
0.9721571916189145
-0.43792438821050783
-0.06133460659123446
0.21527450316501492
-0.26840983802870116
-0.034857321548039284
-0.570377029671685
0.017702528294917242
0.8463770117313207
0.3854065155523854
-1.2351426691594973
-1.1530502823695656
0.36485578435918614
1.155835558608081
0.668778403399318
0.12929666261407424
1.1358257530321325
1.1694803618906178
0.5906156245492051
-0.3172973700548427
1.868131680034677
0.6223575011739838
0.4676084944942431
2.2069854906918325
-0.9714834952129925
-0.35342394655658177
-0.9867023712289656
0.8847840467236393
-0.2847432444911152
-1.0226980523450981
-0.22302788848850522
-1.3202190137711598
-0.06585956644482367
-0.9854300290583783
2.161877611518894
0.8915949282175017
-0.4788215053342487
-2.2283438333678993
0.16179440186188257
-1.1191385238926883
0.512628607504225
0.2756919420504596
0.7084130260736381
-1.0371629842787755
2.3121521179662845
-0.8430868503168003
0.6117035884808777
1.8652367553473779
1.2246069013163332
2.3421042296939696
-0.872652867241052
0.09371108244102729
-0.7331790686985706
0.9679603103665769
1.1817985824780672
-0.3144173200415008
-0.21290972138788888
-1.9373731753206798
1.0896560250258083
-1.4356204171720848
0.674893769122025
0.832586512227647
0.6150254837866272
0.34923107859705765
0.6651925855951446
-0.05575152216924103
-1.2177936161700555
-0.6682239716366883
1.7325374157002875
1.6596466114857025
-1.1505057178029376
0.26975266032847983
-1.4016586616259443
1.092492387412591
-0.5005541027121844
0.1469703380094403
1.1084682488562443
-2.4921953037788933
-0.9215842558931153
0.01476089914074488
-0.15122015158924543
1.5342616066641126
-0.40101286589131235
0.2781537124624964
1.3122628631271946
-1.9471876719546226
2.5909319346487534
0.1980212994459137
0.12508924759656825
-0.7585453655986261
-0.527269128563261
-0.5126803677467959
-0.11970965770764945
-0.2466413317394651
-0.29844935822525703
-0.6700153849436076
-0.06273898452214878
-0.8730864999691661
-1.494803375911902
-1.2282025798034857
0.1309920204687122
-1.1430485424097359
0.8874075244176727
-0.4082180587019509
-1.156123025472348
-0.566511278073904
0.21627978307563211
-0.5836035635401662
-0.9074936990403928
0.4248377041525036
-0.18551483545457312
-0.9992809301069683
-0.2609628188336821
-1.230372756081424
-0.1896249285317958
-0.43626754645419136
0.8177704279349577
1.808340442296205
1.613233884841745
0.18520743511737361
-0.05724989320188208
-0.9940287031534846
-0.3229199083501503
0.04746861113761746
-1.1156164465491125
-1.109260675387653
-0.46746256360005417
-1.0855548610516537
-0.0425822442362564
1.2049606661877401
-0.9196872183713244
-0.37294430497354264
0.6882428463344729
-0.9466324592797389
-0.8046069293932336
0.6608812594776193
-0.12291810388500432
-0.35720554518700354
-1.6096336552807808
-0.17017675887402073
-1.4839576729177368
-0.3531128466703892
-0.038911674177981456
-1.1957580494437836
-1.2433510854672158
-0.5147904852930945
0.2894399958353095
0.9349620924286213
1.4073677346608582
0.5247910013034206
0.7221188314451256
0.8583154579046429
1.97808549630802
1.1046451500994845
1.1049215818317195
0.5063062910873485
-0.5972734060395718
0.3072659335304582
-0.9409262693540564
-0.4324466437229421
-0.9454637779831584
-0.43034666394179094
-0.9862513582019184
1.002467653043387
-0.2712367515688421
-0.16706470420105102
1.399502705724483
-0.0032795263165481653
-2.224578746656081
-2.042631878269945
-0.12076303368103526
-0.0984701626238905
-1.2026294157498054
-0.5981299598308492
-0.8413520845841573
-1.8475740370140525
-1.49843233069103
-0.812796641723673
1.6478885777064614
-0.23339602368131518
-0.7156080753904883
1.192787432651023
-0.044742976733234
0.1459094421251104
0.029120839725457353
-1.4806815879780986
-0.30893129954347787
1.1340949998642984
-0.23599169082140115
0.15018133574659354
0.2505134858698178
-1.4208692149899347
0.048256688831530795
0.8482194481155065
-1.303989204927445
-1.3145090415921197
-0.3102092694049581
-0.5483134116264499
-0.3274909944176148
0.33060231911149357
-0.19481855315095706
-0.0884479498503053
-0.56069747534359
-0.23868473703414472
-0.580110230198679
-0.4577611347448428
0.25582046839268874
0.7542983397356601
-0.8034594467167857
0.984047493394691
1.688334321134478
0.6031793460353996
-0.03724708700239143
-1.10232209093099
-0.9479995221441114
-0.03659467272147163
-1.1861115446219987
0.45748337001423384
-0.49290272011139713
1.4295220465646457
-1.1806431319817638
-1.4836643927138211
1.0975028255307684
0.9509596144365923
-0.16492781303527693
0.41736355829648053
-0.6791439915556045
-0.9907325558286558
1.7210929183013408
0.366391232408783
0.5849296222351167
0.3608105696255862
1.830464836719567
-0.12309337562981078
-0.004261343926703116
0.609739809633197
-0.39279087885980934
1.436399792038678
0.025548876018751134
0.7985059061708464
1.6054420997798071
1.1186314392858852
0.14946855195403427
-0.8555118635023206
1.0054091258755986
2.29955872995847
1.468641915387006
1.1983473324227283
1.9103632492714377
0.9856408742504278
0.8261619095434807
0.7050748596687793
-0.6353673736677179
0.7391450044458803
0.7591320027213958
1.2004990295004194
-0.3760061847746419
0.47318615559175586
-2.4012354357739545
2.4162440885426335
-0.5615083092008625
-1.5510430904783494
0.07812460377726596
-0.7631633787782475
0.9273601446104529
-0.8255541818971408
1.265932830078407
-0.020753207355956066
1.8609311382423965
-0.5011993204596239
0.5276911299353869
0.48929561416158274
-0.6698861804016804
-1.4635370364797538
-1.4987079099664236
-0.09382481144300144
0.12266818608357846
-1.4665982444330161
-1.1238466824009146
0.2238635121705788
1.3682957310752701
0.8473954706875462
-0.8230786219590569
-0.38912501307956343
-0.02978081695231975
1.8872504066381923
2.1682536296664363
-0.33215964301868717
0.10647419746890104
0.331400893075564
1.7329035155618053
-2.0598154238365622
0.6945436879911254
-0.11439416447381262
-1.4118411624600127
2.0665210739085085
-0.3598009951803831
0.30847220452854934
0.750820232247338
-0.5869635339308034
-0.09420983244241436
2.6830030654786072
-1.250954398719874
-0.6972850934401644
1.1406688748188507
-0.8102757968237393
0.661723641792821
-0.5552514996802167
1.536602394769656
-0.6178179593317296
0.8229088144535742
0.45768741873565716
-0.5533713560623378
0.011113150206517503
-0.6913820619921416
-0.9042771384639454
-1.812837422310789
1.5551202887455389
-0.6914476426928644
1.3620238126705326
-1.0187704813079805
0.8450108726148201
-0.8775902150771284
0.035592713164070894
0.06159471915191468
-1.664456891618353
-0.5614183179304939
2.0414935464845225
-0.7177310706686835
0.6338104975509934
0.9244434014440948
-1.0344764461977523
-0.7869524869275087
-0.6446992673159708
0.16721199145936047
-1.444702990406457
-1.934298577533687
0.5233614708671865
-0.1188965922131036
-1.6049703650720466
0.5174047459572251
0.28641310219883903
0.2852889333829266
-1.450700213589167
-0.05346379424956121
-0.798660923714809
-0.7706217307197454
0.4933499561106789
0.759458367765318
1.4549461326605275
-1.080790852423664
-1.1600167071482352
1.476116009782596
-1.3225097426416113
-0.9316773844149504
0.837948704387009
-0.3811426342672102
-2.4296720771956317
-1.2320745354360683
0.4425323737958678
-1.1356062043122064
1.0493403896479898
-0.3484128490238076
-1.2967858253839286
-0.9486577089782239
0.247192595486732
-0.9039443693850804
-0.02286751659919691
-2.2737205320431833
0.050173471916633364
-0.006572817674103869
-1.0529883753118725
-0.18395447790798589
-0.6814406447853978
0.6924677681954423
0.10363253749034991
-0.5314108345188059
-0.5993151583289931
0.3133271040476217
0.9243710102759224
-1.0120912755349305
-1.4229302968610757
-0.11499132373549438
-1.5505528903776697
1.0682933550645604
0.7270375966868771
-0.6067681525607123
0.2322404878900452
-1.7147964721695232
0.30824598316599744
0.0617053914561911
0.036818522871981
-0.007330680720459103
-2.1095862366086857
1.238511415807169
-0.007152457494539858
0.11289163042000318
1.5360436135952888
0.4332017602592479
-0.23259259610232877
-1.0549391960522767
-1.0614173626647871
-0.9114081278241118
-2.169276416448466
0.8043860405977137
-1.4864153170881433
-0.20492379799454105
0.03142178926053368
1.2151136013998711
0.8911899056414877
-2.4524055411189205
-0.5327544482016141
-1.6109657614359627
-0.876561729542096
-0.3005918388276603
1.3717047264683042
0.33469029895371005
0.2859471805779089
-0.4590154040932616
-3.582863175117843
-1.070082758362226
-0.16277921414754926
0.7721540921096235
-1.7677127900953495
1.5883769361619893
-0.22677737259515635
-0.6634979382142534
1.4713016169436794
-1.2164114290028802
-0.6735593207081989
-1.3380506772028053
-0.03555781181643824
-0.11733827827627842
-2.838795718002052
-1.047372923353048
2.9410274262869596
0.8385955848943026
-0.5551092398923319
-0.32115021587250187
0.5866141042500859
-0.38706838265140625
-1.6110816024495958
-0.6516059539513234
0.5507609098060859
-0.5628887866979508
0.14632985015668962
0.10853147408376948
1.0653981071340335
-0.23863032944258367
0.29785139263103905
0.2013612019103432
1.5061090602016596
1.8058094781218055
1.4366765750472006
-0.8544027557723873
-0.232237805248203
-0.5537970658577924
-0.7730505841153332
-2.540862434296739
-0.41965819044939434
-0.4908011781780521
-2.252379575257517
1.0712246067968216
-1.0628379624448472
-1.2434186790923578
0.27114607821146275
0.46954863655921314
-0.5810781719128612
1.2126184395892614
0.1533347880612259
0.7792296573488091
0.25732125166226116
1.0689598152861606
0.5598860739498357
-0.3849696986477995
2.069729655365858
-0.1145085283341845
1.40502281623249
-0.30020735127546144
1.9997919767754602
-0.1449240989572886
-0.21963991034230432
1.6251607241133461
1.1238476331536775
-0.8642638795061164
-0.7455813948192865
-1.2307908695166119
-1.711352594642106
-1.342229439017495
1.5833561157001765
0.8716930012539996
-2.0625910180692864
0.7076114578664683
0.5410863929584097
0.952921532716046
-0.13611842778994956
0.7942452712657652
-1.5361089958838163
0.11403238679366384
-0.22336702499081643
0.03747684835196946
0.015738709349299943
0.44923043213927333
0.5007355862625634
-0.5115578608466255
-0.08819082486802247
-0.18132613074761036
-1.7311105531521502
2.1518158241544296
0.06236544936796832
-0.47138298030298664
0.29974383413970723
0.9712219551807298
0.37163787810383053
-0.027679282086564356
-0.11835437489761653
-0.8440666143236691
-1.0282442604733446
1.1468545074527488
-1.462996612287326
-0.3294496230195465
-0.01622132765243538
0.35349684866095593
-0.3799729661822483
-2.0300429015318233
1.640970235233249
0.5478765956050166
1.5697143099094903
-0.08625710506684289
0.8371736474448743
1.5940446668593293
0.3842808183586706
0.5259449807465304
0.6885407043334874
1.8493238308518196
-0.3191287456934435
0.8028380381544024
-0.20767828980496766
-1.232100629872078
0.8403590912568032
-0.054441777463518026
0.44394346274158136
0.012764002070573018
-0.5300886694808894
-0.3656066062586872
-0.40757560011432115
0.06799711644832614
-0.12161115728931965
-0.8638126132482055
-0.38692968917334397
-0.3023104282308492
0.3986585808592712
-0.18409263271431253
-0.8736411497937554
-1.145505702617205
0.3728112420203127
1.3366662381710215
0.7557489755050208
0.9750402491087371
0.19982130480039928
-1.7099879965297082
-1.0090482018091664
-0.4857381196872427
-1.3678635316971963
-0.884350649536726
-1.467570726599342
0.4453054200813883
-0.23323379588099247
-0.4576412699084998
-0.47388455821966835
0.62568520668062
-0.3181906919899339
-1.0203286776763718
-2.2417125932837796
0.06355189231307382
0.8254064926305017
-0.9949304986680269
-0.7936157040698308
-1.0043865604312427
1.13288044472252
0.6557240749496855
0.27843877540448203
-1.4095088060477217
-1.3455102695192758
0.1465977852093481
-1.8001464515664596
-0.09767206382513664
-0.22056135994351977
0.29311228576214116
0.17045777684105307
-1.02866435813221
-1.391932024424604
0.9986493496053183
-0.008655578019783089
0.29971763980011423
0.21813376524116246
0.48174709013684663
0.4055616102109418
2.440692708915606
0.08725478884224269
0.8969898961950389
-0.07511486502723354
-1.5945408039967186
0.0017562791237888122
0.623560790569433
0.25844812528158195
-1.3212633111815837
-0.36945026178856566
-0.16597859818073937
0.9198044757678316
2.281375787202633
0.1756690595483129
-0.02084814799146065
0.13020973189458285
-0.5964047698531468
2.2628212491059974
-1.4090566988995483
0.6956106192270972
-1.1974365950777168
2.599254913035228
1.0727204528345853
-0.8648509140408489
1.313055662512853
1.474213633621547
-0.08914482139131599
1.0398039279101652
1.2490388107781312
-0.13077242858829313
0.9700515852945718
-0.5162800524086301
0.8403436478422589
-0.0794941123996346
0.13431090446973667
0.3954008533969435
1.1692836393568942
0.4852900667901251
-0.6541711633268448
-0.8919848672135403
-0.485203469709182
-0.8169458524826773
-0.3079026514523085
0.13477633321401583
0.6007535339200714
-0.32991897121273644
-1.2635098179503148
-0.8709369453355434
0.296502326932874
-0.5182192492119817
1.1223266262803886
-1.13113491338437
1.1232466314015712
0.8081263176211793
0.9187730914866695
1.8345137736397719
-0.9780810955019039
-0.2329207238869446
1.1091772198660788
2.5925418315783415
-1.2056948699531258
0.16747217905287187
-1.0831429527490797
-0.171369775794693
0.2830205382958202
-1.1035172900836299
1.5869643178712345
-0.20142375896380207
-0.2381793217529402
0.45832338921733634
-0.6284356778264482
0.0632151146197642
-0.9381987475274837
1.3924951794245732
0.45785328410152143
-0.4728217309739956
0.830635375853659
-1.8915420441463595
1.2422696339626123
-0.010529666965833882
0.6794973914328161
0.3663451208155213
0.6636132369090314
1.0920661159463205
-0.6646634397745533
-0.8872962161948823
0.1241377567628191
1.3293634810317954
1.3500706818917039
-0.6030518765635173
0.7607820746867231
0.5121510785743475
0.47429400533990207
0.6363980337256936
0.3084659575004168
-1.939911457192108
0.2793293466129288
-0.8477102336529749
-0.6516487525319836
-0.235183962313086
1.0168953319009233
0.8805769929505215
0.3226786377231594
-0.9903987294165053
-0.5187672104006577
-0.07958698347778433
0.009679284738765502
-1.0560381914047139
0.8516778505587853
0.5485164932279942
-2.1359477057608656
-1.1365342120672868
1.9326202640635783
-1.0172028334935512
-0.9355829609554875
-0.11954358430678914
-1.3516242403239496
-0.27461010482452225
0.31848618529898315
0.7199408318816723
0.03327108379138707
-1.0308839820337272
0.5657076787288976
0.46930961589689546
-0.6619633168973516
-0.9394783073765437
0.29126513955643
-1.5828016092898678
0.31687304095244917
1.0449731187378277
0.024801881695308774
-1.469675641110579
-0.5121324832319704
0.5250449940818994
-2.0006066969883465
0.5351085373876345
-0.5465608248266618
-1.653575535003005
1.0606820091679365
0.8305624789824124
-1.014768356292017
-0.9765023586931434
-0.12300375268337473
-0.976527260672561
1.046268692646613
-1.0633756445878086
0.4760967033791583
-0.4851217082020777
0.4834406882138442
0.06503834626978809
0.443937299022252
0.8742128584691776
-0.29051132405783914
0.02033645720121866
-1.8111926332214636
-0.9947359164967431
-0.7382877763551037
-2.50260602641711
0.45280263552033573
0.5570861017635641
2.2808576820884947
-0.6448972559858939
0.7021901232524541
-1.614449586076338
-0.905864692648015
-0.8570897280145536
0.9204209303991254
-1.70926579082641
0.7508206433463271
-1.1540674965294462
0.047761905152289834
0.03959033171498802
1.0256601472350286
0.6775738605233868
0.15142371084554668
-2.5129927809415133
-1.079530819167353
-0.7765011528764055
-0.369151930727637
1.5108737088285753
0.24148893236148047
-0.7440007327054375
-1.151645990121946
-1.6886625195726732
1.7933310171587717
1.3665676921429009
-1.0651804902024298
-1.9082992584764888
-0.6695214267461594
0.07056742135961196
0.428991477250962
0.03858399420646802
0.5201741321950596
-1.502594042826832
-0.4782145960592354
-0.4638570294247536
-0.3874948527770883
-0.22205365412177505
-1.2664437865649292
-1.507506318717313
-0.10832963317010075
-0.42625195757875195
-1.0032296988527243
-1.2177688006185245
-1.1722518583192334
0.1898707468981254
1.374730615493166
1.6155113514589372
0.3404880326791195
-0.08449421663830446
-0.09130160494549326
0.2916393034232717
0.07129230388233777
0.4020638327820824
-0.19580870817864224
-1.25431591861318
0.33955718767306253
-2.004508316826806
0.1862121732057655
0.2615932503001318
-1.8152414141239754
0.514014895718661
1.500557707395038
-0.16091698961325546
-0.3440963846562191
0.7124261255144212
1.5969253245087822
-0.20413083450350775
0.15791797305418281
-0.0550228876103466
-0.5698382321400361
-0.17898521283065638
0.1129082310821996
0.9265895880861772
1.146354865083742
-0.32958966658135586
0.030134788866530864
-0.6277044830508248
-0.47043759094579457
0.4378703366540871
1.2399668760543983
0.3259184737496926
1.3797134702810705
-0.7882048180116736
0.7454770744351986
-0.5264394218785505
-0.5034942741155103
2.2387498832158435
0.696469248630429
0.545264828508808
0.3963492253143769
1.3165449184571087
0.28432709298255116
0.23403901083872872
-0.06118118127688269
-1.9378561975443942
-0.11669007416443299
-1.8727158995080553
1.5437439183139228
0.29111750207651577
0.7754098464728121
-0.9758988120064624
-0.22605438155367819
-0.10289531990649355
-0.1812887404291652
1.4529487053689463
-0.9229821137505358
0.7272469406368619
-0.9582393227381294
-0.16196855419344397
0.5648632999355147
0.2395448016307482
-0.14340400449875498
-0.32371383790696445
0.011826504966101098
0.12425330513520838
0.9363866604048096
0.06205916695079684
0.2532873458776447
-0.37450257460150677
-0.07526821247876891
1.4407272441324248
0.6350592896335834
0.5616508365210178
-0.7161225924151698
-0.4469563640361398
-2.1751851282339048
1.2501100511958152
-1.6766879339835383
0.4017175832545408
-1.1486783711973947
-0.4479192595124604
1.0595441137362573
-1.013202768939153
0.39167045688315444
-0.08495544957678687
0.4953024993513653
0.642044067856554
0.4473233251804654
-0.11268030344738936
0.5007674888555796
0.1909656516895988
0.024614404355728
-0.6663762656253139
-0.907933174138057
0.9418734486283202
-0.38047175942934897
0.9475689874924413
0.13808250094155147
-0.15623980381900687
0.916491417478429
-1.1528685505527199
-1.3441711604113171
1.9363646981556633
-0.4733405620470696
-0.20734497471726268
-2.3134938791381283
-0.5881269413005789
0.5064523303427231
0.28756307253684615
2.08929870673867
-0.04111300062680246
-0.738454319676644
-0.1364703340861489
-1.948266589445186
0.016969291168373462
-1.0752756172559834
0.034981084576506775
-0.49573299919659003
-1.256446714087407
0.9932186620270551
1.0566048242075448
-0.1244323411607649
-0.9021427495043809
1.5677977704658068
-0.6723834594894692
-0.7865321561366478
0.5800593614799409
-0.5920300234751834
-0.7672195650556717
0.14040090312047193
0.05119985187661963
0.6144334657570293
-0.20387411532066707
-0.2537242204286005
0.3635058753164369
-1.3225619758009868
0.6815194041585517
0.7605224458159391
0.121608671509136
1.7993889622157635
-1.3513571521815038
0.6374990124249642
0.6727342984028933
-1.8134131554813997
-0.4729824811694898
-1.7831479897160172
-0.9771700762338185
-0.9973833544944484
0.5374742908179723
0.10376697080295819
0.05339228995787599
-0.19606590452553477
1.3495886480298764
0.3218217905627757
-0.4203745938928657
-1.0169651605788004
-0.007356676341642733
-1.4959218566807164
-0.23490244743272573
-0.7161089017801842
-0.8343885225251317
2.833541203382591
-0.30953882270789634
0.6621421061826649
-0.8457060878218543
0.8612153983315538
-1.1234910417614248
0.2670897177482617
-0.13657750201895533
-0.19578550285963536
1.5578332782083906
0.8868527375693845
1.4911276169304484
0.47337525347977044
-1.2386978603902878
-0.5460279794893448
-1.2307831943692251
-0.5562336891081517
-1.901769005984987
-1.2700763532030286
-0.13959437776739492
0.4921124908236431
-0.04974480784642104
0.27085986894775416
0.24737860722376778
-0.24383038139058033
-0.2986048345985403
-0.7599520486526883
-0.05551767717817817
-1.1853038686327608
1.1510519107492838
1.767881197577159
0.18051469886428384
0.06993189590533151
-1.0097313026207155
-1.3528839043581287
0.6850674005072324
-0.1400097462090666
-0.15183516692622126
-0.821336710386666
-0.37365773274706837
0.0472444402071828
-0.23655749088597483
1.3085989726010303
-0.6029925069611449
-0.3168744941385558
-0.0699093058631303
0.23772911832030716
-0.6145455672739469
1.649617832309545
0.3451824909342572
-0.03794405581110385
0.9655082221063979
0.03868643510630692
0.4629139457826453
-0.8684741191693635
0.9622215491627354
1.647662088370819
-1.3049431607356579
-0.19204815767901715
-1.2723425454050536
0.9114540073464533
1.7092267131764234
-0.2099920572306789
1.213784046628424
0.09591301418159529
0.008490711968213703
0.1961043196858745
0.03568537031218568
0.0034878922954360604
-0.2942825978679089
0.16953082820334386
2.190367934936065
-0.5386992616871582
0.2531952129615112
-0.7836501198469413
-0.8148923512481303
0.10001936704863908
0.6744801792488092
0.03384365107482437
0.9508447767912311
3.895825437382967
-0.15192669183034485
-1.373539315145233
2.1146144655783736
0.20160570855589557
0.003855550924465659
-2.6602468479329087
0.616163888028898
-0.8884661044472886
-0.26999498104830405
-0.42914415194508565
2.2922671913534884
0.78230523601864
0.4118054573124626
0.21144673354963164
-0.18673727175798266
-0.17617121254781268
-0.41510613866382867
1.2279987324804345
-0.005480250941760884
0.25993458521718954
0.40158735575403437
-0.0764846445316968
1.0900233574641627
0.3309140664017148
2.1660067480474274
2.023528617788491
0.9256054151748785
0.784796377338094
-0.28400207883604944
-0.9975852952885405
-0.31225049530236904
0.00978235344064756
-3.0943125216659273
-0.061828325090018545
-0.5674500613879422
-0.45809755742240027
-1.2171131795085697
0.9037760310931295
-1.0304998824011744
-0.19311604330126278
-1.42075434171927
0.20950439747253158
1.3741725336002082
-2.0407958746606334
-0.021143026747838512
-0.19921292515358857
-1.429273908531567
0.09015274450747689
0.5731834355509304
-0.27115751343581707
0.9547402362240633
-0.09321734776851547
-0.10784453994752398
1.896883981456638
0.4171577490454182
0.8910023634821914
1.2130414107219145
-1.8261728689593115
-0.3890889812577856
-0.7792818614663978
0.28273537577127583
-0.28718349530725784
-0.29916563979376004
-2.1043651959521186
-0.10687855141781726
-0.826181003021214
0.8983636520571533
-0.28867818434356257
0.8240476954409213
-1.333538520647509
-0.2922623356544585
-0.2748220527445862
1.2931306332550634
0.7623464420847008
-0.9367270611901236
0.5705769940691494
0.9606240939491665
-1.5073875783844726
0.9191621039972969
0.2833571166825671
0.44073546164991395
0.7434987222313656
0.23115978756426372
